{"learner":{"attributes":{"best_iteration":"99","best_ntree_limit":"100","scikit_learn":"{\"use_label_encoder\": null, \"n_estimators\": 100, \"objective\": \"binary:logistic\", \"max_depth\": 2, \"max_leaves\": null, \"max_bin\": null, \"grow_policy\": null, \"learning_rate\": null, \"verbosity\": null, \"booster\": null, \"tree_method\": null, \"gamma\": null, \"min_child_weight\": null, \"max_delta_step\": null, \"subsample\": null, \"sampling_method\": null, \"colsample_bytree\": null, \"colsample_bylevel\": null, \"colsample_bynode\": null, \"reg_alpha\": null, \"reg_lambda\": null, \"scale_pos_weight\": 2, \"base_score\": null, \"missing\": NaN, \"num_parallel_tree\": null, \"random_state\": null, \"n_jobs\": null, \"monotone_constraints\": null, \"interaction_constraints\": null, \"importance_type\": null, \"gpu_id\": null, \"validate_parameters\": null, \"predictor\": null, \"enable_categorical\": false, \"feature_types\": null, \"max_cat_to_onehot\": null, \"max_cat_threshold\": null, \"eval_metric\": null, \"early_stopping_rounds\": null, \"callbacks\": null, \"kwargs\": {\"eta\": 0.4}, \"classes_\": [false, true], \"n_classes_\": 2, \"_estimator_type\": \"classifier\"}"},"feature_names":[],"feature_types":[],"gradient_booster":{"model":{"gbtree_model_param":{"num_parallel_tree":"1","num_trees":"100","size_leaf_vector":"0"},"tree_info":[0,0,0,0,0,0,0,0,0,0,0,0,0,0,0,0,0,0,0,0,0,0,0,0,0,0,0,0,0,0,0,0,0,0,0,0,0,0,0,0,0,0,0,0,0,0,0,0,0,0,0,0,0,0,0,0,0,0,0,0,0,0,0,0,0,0,0,0,0,0,0,0,0,0,0,0,0,0,0,0,0,0,0,0,0,0,0,0,0,0,0,0,0,0,0,0,0,0,0,0],"trees":[{"base_weights":[-1.4972434E0,-1.7998732E0,4.869455E-1,-1.9474132E0,-1.2827895E0,-6.666667E-2,6.3027406E-1],"categories":[],"categories_nodes":[],"categories_segments":[],"categories_sizes":[],"default_left":[1,1,1,0,0,0,0],"id":0,"left_children":[1,3,5,-1,-1,-1,-1],"loss_changes":[1.2553648E4,1.3812969E3,2.1961896E2,0E0,0E0,0E0,0E0],"parents":[2147483647,0,0,1,1,2,2],"right_children":[2,4,6,-1,-1,-1,-1],"split_conditions":[1.5814083E0,-8.005565E-2,-6.4099765E-1,-7.789653E-1,-5.131158E-1,-2.666667E-2,2.5210962E-1],"split_indices":[14,14,13,0,0,0,0],"split_type":[0,0,0,0,0,0,0],"sum_hessian":[2.090375E4,1.81375E4,2.76625E3,1.4109E4,4.0285E3,5.69E2,2.19725E3],"tree_param":{"num_deleted":"0","num_feature":"17","num_nodes":"7","size_leaf_vector":"0"}},{"base_weights":[-1.0359267E0,-1.3037018E0,1.2297606E-1,-1.411015E0,-9.431982E-1,-3.7181216E-1,3.8552532E-1],"categories":[],"categories_nodes":[],"categories_segments":[],"categories_sizes":[],"default_left":[1,1,1,0,0,0,0],"id":1,"left_children":[1,3,5,-1,-1,-1,-1],"loss_changes":[5.79551E3,5.855488E2,4.556031E2,0E0,0E0,0E0,0E0],"parents":[2147483647,0,0,1,1,2,2],"right_children":[2,4,6,-1,-1,-1,-1],"split_conditions":[3.6282718E-1,-3.3322835E-1,2.6102815E0,-5.6440604E-1,-3.7727928E-1,-1.4872487E-1,1.5421014E-1],"split_indices":[14,14,14,0,0,0,0],"split_type":[0,0,0,0,0,0,0],"sum_hessian":[1.8674076E4,1.5169012E4,3.505064E3,1.1687121E4,3.4818906E3,1.2149705E3,2.2900935E3],"tree_param":{"num_deleted":"0","num_feature":"17","num_nodes":"7","size_leaf_vector":"0"}},{"base_weights":[-8.095386E-1,-1.1312504E0,-9.366804E-2,-1.1440893E0,3.046412E0,-4.6851647E-1,1.9620076E-1],"categories":[],"categories_nodes":[],"categories_segments":[],"categories_sizes":[],"default_left":[1,1,1,0,0,0,0],"id":2,"left_children":[1,3,5,-1,-1,-1,-1],"loss_changes":[3.5413818E3,5.7254297E2,5.182773E2,0E0,0E0,0E0,0E0],"parents":[2147483647,0,0,1,1,2,2],"right_children":[2,4,6,-1,-1,-1,-1],"split_conditions":[1.6312751E-1,4.175677E0,1.5814083E0,-4.5763573E-1,1.2185649E0,-1.8740658E-1,7.84803E-2],"split_indices":[14,15,14,0,0,0,0],"split_type":[0,0,0,0,0,0,0],"sum_hessian":[1.537645E4,1.0608442E4,4.7680073E3,1.0576664E4,3.1778534E1,2.078956E3,2.6890513E3],"tree_param":{"num_deleted":"0","num_feature":"17","num_nodes":"7","size_leaf_vector":"0"}},{"base_weights":[-6.468026E-1,-1.0645957E0,-1.3097717E-1,-1.081193E0,9.003156E-1,-3.72102E-1,1.1370048E-1],"categories":[],"categories_nodes":[],"categories_segments":[],"categories_sizes":[],"default_left":[1,1,1,0,0,0,0],"id":3,"left_children":[1,3,5,-1,-1,-1,-1],"loss_changes":[2.7021768E3,2.2690479E2,3.311646E2,0E0,0E0,0E0,0E0],"parents":[2147483647,0,0,1,1,2,2],"right_children":[2,4,6,-1,-1,-1,-1],"split_conditions":[-8.005565E-2,2.9676626E0,7.385644E-1,-4.324772E-1,3.6012623E-1,-1.488408E-1,4.548019E-2],"split_indices":[14,15,14,0,0,0,0],"split_type":[0,0,0,0,0,0,0],"sum_hessian":[1.2538269E4,6.9268223E3,5.611447E3,6.8692485E3,5.757354E1,2.8259802E3,2.7854663E3],"tree_param":{"num_deleted":"0","num_feature":"17","num_nodes":"7","size_leaf_vector":"0"}},{"base_weights":[-5.121937E-1,-1.0017656E0,-9.4732516E-2,-1.0202923E0,6.548623E-1,-4.171719E-1,1.2884423E-1],"categories":[],"categories_nodes":[],"categories_segments":[],"categories_sizes":[],"default_left":[1,1,1,0,0,0,0],"id":4,"left_children":[1,3,5,-1,-1,-1,-1],"loss_changes":[2.1203857E3,1.4722559E2,4.038437E2,0E0,0E0,0E0,0E0],"parents":[2147483647,0,0,1,1,2,2],"right_children":[2,4,6,-1,-1,-1,-1],"split_conditions":[-3.3322835E-1,3.4736207E0,-2.6743138E-1,-4.081169E-1,2.6194492E-1,-1.6686876E-1,5.1537693E-2],"split_indices":[14,15,13,0,0,0,0],"split_type":[0,0,0,0,0,0,0],"sum_hessian":[1.0374326E4,4.77413E3,5.600197E3,4.7217095E3,5.2420216E1,2.2927532E3,3.3074436E3],"tree_param":{"num_deleted":"0","num_feature":"17","num_nodes":"7","size_leaf_vector":"0"}},{"base_weights":[-3.8939866E-1,-9.283168E-1,-5.8742814E-2,7.199379E-1,-9.4764227E-1,-2.763708E-1,2.228243E-1],"categories":[],"categories_nodes":[],"categories_segments":[],"categories_sizes":[],"default_left":[1,1,1,0,0,0,0],"id":5,"left_children":[1,3,5,-1,-1,-1,-1],"loss_changes":[1.5961061E3,1.0917285E2,3.4029266E2,0E0,0E0,0E0,0E0],"parents":[2147483647,0,0,1,1,2,2],"right_children":[2,4,6,-1,-1,-1,-1],"split_conditions":[-3.3322835E-1,-1.6371744E0,-3.5617363E-1,2.8797516E-1,-3.790569E-1,-1.1054832E-1,8.912972E-2],"split_indices":[14,13,0,0,0,0,0],"split_type":[0,0,0,0,0,0,0],"sum_hessian":[8.956309E3,3.404953E3,5.551356E3,3.90397E1,3.3659133E3,3.1312095E3,2.4201465E3],"tree_param":{"num_deleted":"0","num_feature":"17","num_nodes":"7","size_leaf_vector":"0"}},{"base_weights":[-2.8806874E-1,-8.5243195E-1,-3.6759593E-2,1.4871901E0,-8.687822E-1,-1.6825086E-1,3.1232357E-1],"categories":[],"categories_nodes":[],"categories_segments":[],"categories_sizes":[],"default_left":[1,1,1,0,0,0,0],"id":6,"left_children":[1,3,5,-1,-1,-1,-1],"loss_changes":[1.1271315E3,9.495642E1,2.525E2,0E0,0E0,0E0,0E0],"parents":[2147483647,0,0,1,1,2,2],"right_children":[2,4,6,-1,-1,-1,-1],"split_conditions":[-3.3322835E-1,-3.5990152E0,9.516225E-1,5.9487605E-1,-3.475129E-1,-6.730034E-2,1.2492943E-1],"split_indices":[14,11,5,0,0,0,0],"split_type":[0,0,0,0,0,0,0],"sum_hessian":[7.946302E3,2.4475234E3,5.4987783E3,1.636131E1,2.431162E3,3.9946191E3,1.5041593E3],"tree_param":{"num_deleted":"0","num_feature":"17","num_nodes":"7","size_leaf_vector":"0"}},{"base_weights":[-2.0506614E-1,-7.5953746E-1,-2.298886E-2,-8.077608E-1,7.5410515E-1,-1.8013927E-1,2.1201766E-1],"categories":[],"categories_nodes":[],"categories_segments":[],"categories_sizes":[],"default_left":[1,1,1,0,0,0,0],"id":7,"left_children":[1,3,5,-1,-1,-1,-1],"loss_changes":[7.385006E2,1.3260303E2,2.0345212E2,0E0,0E0,0E0,0E0],"parents":[2147483647,0,0,1,1,2,2],"right_children":[2,4,6,-1,-1,-1,-1],"split_conditions":[-3.3322835E-1,2.3893075E0,2.6102815E0,-3.2310432E-1,3.0164206E-1,-7.205571E-2,8.480706E-2],"split_indices":[14,15,14,0,0,0,0],"split_type":[0,0,0,0,0,0,0],"sum_hessian":[7.314201E3,1.8073112E3,5.50689E3,1.7519614E3,5.5349632E1,3.3002349E3,2.2066553E3],"tree_param":{"num_deleted":"0","num_feature":"17","num_nodes":"7","size_leaf_vector":"0"}},{"base_weights":[-1.4633954E-1,-8.2796E-1,-4.0489312E-2,3.7073755E0,-8.4958845E-1,-4.3477315E-1,5.9059914E-2],"categories":[],"categories_nodes":[],"categories_segments":[],"categories_sizes":[],"default_left":[1,1,1,0,0,0,0],"id":8,"left_children":[1,3,5,-1,-1,-1,-1],"loss_changes":[4.83413E2,9.1494446E1,2.2771773E2,0E0,0E0,0E0,0E0],"parents":[2147483647,0,0,1,1,2,2],"right_children":[2,4,6,-1,-1,-1,-1],"split_conditions":[-4.572368E-1,-3.5990152E0,-7.6551974E-1,1.4829502E0,-3.3983538E-1,-1.7390926E-1,2.3623966E-2],"split_indices":[14,11,13,0,0,0,0],"split_type":[0,0,0,0,0,0,0],"sum_hessian":[6.699605E3,8.996304E2,5.7999746E3,3.4610405E0,8.961694E2,1.1685078E3,4.631467E3],"tree_param":{"num_deleted":"0","num_feature":"17","num_nodes":"7","size_leaf_vector":"0"}},{"base_weights":[-9.972492E-2,-7.356139E-1,-2.5739454E-2,-8.5803664E-1,7.357506E-1,-2.0213507E-1,1.1366852E-1],"categories":[],"categories_nodes":[],"categories_segments":[],"categories_sizes":[],"default_left":[1,1,1,0,0,0,0],"id":9,"left_children":[1,3,5,-1,-1,-1,-1],"loss_changes":[3.0198004E2,1.21135345E2,1.414496E2,0E0,0E0,0E0,0E0],"parents":[2147483647,0,0,1,1,2,2],"right_children":[2,4,6,-1,-1,-1,-1],"split_conditions":[-4.572368E-1,1.2291465E0,3.6282718E-1,-3.4321466E-1,2.9430026E-1,-8.085403E-2,4.5467407E-2],"split_indices":[14,15,14,0,0,0,0],"split_type":[0,0,0,0,0,0,0],"sum_hessian":[6.4181533E3,6.679892E2,5.7501646E3,6.170641E2,5.0925095E1,2.5381472E3,3.212017E3],"tree_param":{"num_deleted":"0","num_feature":"17","num_nodes":"7","size_leaf_vector":"0"}},{"base_weights":[-6.9068E-2,-1.9346651E-1,1.8517321E-1,-4.367677E-1,7.6049683E-3,5.4824364E-1,1.2651662E-2],"categories":[],"categories_nodes":[],"categories_segments":[],"categories_sizes":[],"default_left":[1,1,1,0,0,0,0],"id":10,"left_children":[1,3,5,-1,-1,-1,-1],"loss_changes":[1.9299545E2,2.0043747E2,1.255785E2,0E0,0E0,0E0,0E0],"parents":[2147483647,0,0,1,1,2,2],"right_children":[2,4,6,-1,-1,-1,-1],"split_conditions":[7.2874546E-1,3.6282718E-1,-2.2381052E-2,-1.7470708E-1,3.0419873E-3,2.1929745E-1,5.060665E-3],"split_indices":[13,14,8,0,0,0,0],"split_type":[0,0,0,0,0,0,0],"sum_hessian":[6.1000605E3,4.0961035E3,2.0039569E3,1.8528906E3,2.2432131E3,6.448006E2,1.3591562E3],"tree_param":{"num_deleted":"0","num_feature":"17","num_nodes":"7","size_leaf_vector":"0"}},{"base_weights":[-4.7230538E-2,-1.0837854E-1,3.5573748E-1,-4.4252867E-1,1.698032E-2,4.2214236E-1,-1.016899E0],"categories":[],"categories_nodes":[],"categories_segments":[],"categories_sizes":[],"default_left":[1,1,1,0,0,0,0],"id":11,"left_children":[1,3,5,-1,-1,-1,-1],"loss_changes":[1.459384E2,2.1538855E2,7.1557724E1,0E0,0E0,0E0,0E0],"parents":[2147483647,0,0,1,1,2,2],"right_children":[2,4,6,-1,-1,-1,-1],"split_conditions":[1.1950939E0,1.6312751E-1,2.336043E0,-1.7701147E-1,6.792128E-3,1.6885695E-1,-4.067596E-1],"split_indices":[16,14,11,0,0,0,0],"split_type":[0,0,0,0,0,0,0],"sum_hessian":[5.9200947E3,5.140748E3,7.793469E2,1.4017596E3,3.7389883E3,7.4404425E2,3.530263E1],"tree_param":{"num_deleted":"0","num_feature":"17","num_nodes":"7","size_leaf_vector":"0"}},{"base_weights":[-3.3260055E-2,-3.1528285E-1,4.221517E-2,-6.1539406E-1,-6.601452E-2,6.7674965E-2,-8.698434E-1],"categories":[],"categories_nodes":[],"categories_segments":[],"categories_sizes":[],"default_left":[1,1,1,0,0,0,0],"id":12,"left_children":[1,3,5,-1,-1,-1,-1],"loss_changes":[1.2296717E2,9.119734E1,1.05893E2,0E0,0E0,0E0,0E0],"parents":[2147483647,0,0,1,1,2,2],"right_children":[2,4,6,-1,-1,-1,-1],"split_conditions":[-6.3072014E-1,7.385644E-1,2.312335E0,-2.4615763E-1,-2.640581E-2,2.7069986E-2,-3.4793738E-1],"split_indices":[11,14,11,0,0,0,0],"split_type":[0,0,0,0,0,0,0],"sum_hessian":[5.77535E3,1.218625E3,4.556725E3,5.5225665E2,6.6636835E2,4.433881E3,1.2284442E2],"tree_param":{"num_deleted":"0","num_feature":"17","num_nodes":"7","size_leaf_vector":"0"}},{"base_weights":[-2.3326548E-2,-4.9808124E-1,7.806026E-3,7.212698E-1,-6.804545E-1,6.958055E-2,-1.9996847E-1],"categories":[],"categories_nodes":[],"categories_segments":[],"categories_sizes":[],"default_left":[1,1,1,0,0,0,0],"id":13,"left_children":[1,3,5,-1,-1,-1,-1],"loss_changes":[8.4007576E1,7.827375E1,6.848566E1,0E0,0E0,0E0,0E0],"parents":[2147483647,0,0,1,1,2,2],"right_children":[2,4,6,-1,-1,-1,-1],"split_conditions":[-4.572368E-1,-1.139086E0,4.685662E-2,2.885079E-1,-2.721818E-1,2.783222E-2,-7.998739E-2],"split_indices":[14,13,15,0,0,0,0],"split_type":[0,0,0,0,0,0,0],"sum_hessian":[5.6824766E3,3.4877963E2,5.333697E3,4.4994003E1,3.037856E2,4.111847E3,1.2218497E3],"tree_param":{"num_deleted":"0","num_feature":"17","num_nodes":"7","size_leaf_vector":"0"}},{"base_weights":[-1.624541E-2,-7.781005E-2,1.324921E-1,-2.859156E-1,8.963287E-2,-3.4700073E-2,3.379481E-1],"categories":[],"categories_nodes":[],"categories_segments":[],"categories_sizes":[],"default_left":[1,1,1,0,0,0,0],"id":14,"left_children":[1,3,5,-1,-1,-1,-1],"loss_changes":[5.139078E1,1.3833208E2,5.644906E1,0E0,0E0,0E0,0E0],"parents":[2147483647,0,0,1,1,2,2],"right_children":[2,4,6,-1,-1,-1,-1],"split_conditions":[9.516225E-1,7.385644E-1,5.163207E-1,-1.1436625E-1,3.5853148E-2,-1.3880029E-2,1.3517925E-1],"split_indices":[5,14,11,0,0,0,0],"split_type":[0,0,0,0,0,0,0],"sum_hessian":[5.610077E3,3.9680994E3,1.6419778E3,1.7689106E3,2.199189E3,9.05747E2,7.3623083E2],"tree_param":{"num_deleted":"0","num_feature":"17","num_nodes":"7","size_leaf_vector":"0"}},{"base_weights":[-1.1901146E-2,-1.1206463E-1,7.573351E-2,2.798337E-1,-1.539593E-1,9.0196095E-2,-6.822045E-1],"categories":[],"categories_nodes":[],"categories_segments":[],"categories_sizes":[],"default_left":[1,1,1,0,0,0,0],"id":15,"left_children":[1,3,5,-1,-1,-1,-1],"loss_changes":[4.8169785E1,4.20865E1,3.2146324E1,0E0,0E0,0E0,0E0],"parents":[2147483647,0,0,1,1,2,2],"right_children":[2,4,6,-1,-1,-1,-1],"split_conditions":[3.5517913E-1,-1.139086E0,2.2851577E0,1.11933485E-1,-6.1583724E-2,3.607844E-2,-2.728818E-1],"split_indices":[13,13,11,0,0,0,0],"split_type":[0,0,0,0,0,0,0],"sum_hessian":[5.4857207E3,2.5597422E3,2.9259785E3,2.4666512E2,2.313077E3,2.8720564E3,5.3922123E1],"tree_param":{"num_deleted":"0","num_feature":"17","num_nodes":"7","size_leaf_vector":"0"}},{"base_weights":[-7.7188457E-3,-5.2200582E-2,1.7996371E-1,-4.2880642E-1,-3.2108005E-2,2.5769693E-1,-6.1543655E-2],"categories":[],"categories_nodes":[],"categories_segments":[],"categories_sizes":[],"default_left":[1,1,1,0,0,0,0],"id":16,"left_children":[1,3,5,-1,-1,-1,-1],"loss_changes":[4.563148E1,3.3420887E1,1.9675976E1,0E0,0E0,0E0,0E0],"parents":[2147483647,0,0,1,1,2,2],"right_children":[2,4,6,-1,-1,-1,-1],"split_conditions":[1.622988E0,-4.572368E-1,-1.5867952E-1,-1.7152257E-1,-1.2843202E-2,1.03078775E-1,-2.4617461E-2],"split_indices":[0,14,16,0,0,0,0],"split_type":[0,0,0,0,0,0,0],"sum_hessian":[5.46374E3,4.417493E3,1.0462468E3,2.2271353E2,4.19478E3,7.9144116E2,2.5480571E2],"tree_param":{"num_deleted":"0","num_feature":"17","num_nodes":"7","size_leaf_vector":"0"}},{"base_weights":[-5.1785745E-3,5.0404714E-3,-5.6259894E-1,-1.5052894E-1,4.157734E-2,-7.2138464E-1,8.024113E-2],"categories":[],"categories_nodes":[],"categories_segments":[],"categories_sizes":[],"default_left":[1,1,1,0,0,0,0],"id":17,"left_children":[1,3,5,-1,-1,-1,-1],"loss_changes":[3.0901823E1,3.0289171E1,1.0026676E1,0E0,0E0,0E0,0E0],"parents":[2147483647,0,0,1,1,2,2],"right_children":[2,4,6,-1,-1,-1,-1],"split_conditions":[2.312335E0,-6.3072014E-1,1.3968806E0,-6.0211577E-2,1.6630936E-2,-2.8855386E-1,3.2096453E-2],"split_indices":[11,11,4,0,0,0,0],"split_type":[0,0,0,0,0,0,0],"sum_hessian":[5.4233916E3,5.326729E3,9.666261E1,1.01250214E3,4.314227E3,7.741774E1,1.9244873E1],"tree_param":{"num_deleted":"0","num_feature":"17","num_nodes":"7","size_leaf_vector":"0"}},{"base_weights":[-3.5912646E-3,5.360603E-1,-1.30176665E-2,5.960325E-1,-1.3112714E0,-3.3131856E-2,2.2181599E-1],"categories":[],"categories_nodes":[],"categories_segments":[],"categories_sizes":[],"default_left":[1,1,1,0,0,0,0],"id":18,"left_children":[1,3,5,-1,-1,-1,-1],"loss_changes":[2.7533062E1,1.1076002E1,2.5132406E1,0E0,0E0,0E0,0E0],"parents":[2147483647,0,0,1,1,2,2],"right_children":[2,4,6,-1,-1,-1,-1],"split_conditions":[-6.3187873E-1,4.3613005E0,2.596577E0,2.38413E-1,-5.245086E-1,-1.3252743E-2,8.8726394E-2],"split_indices":[16,7,13,0,0,0,0],"split_type":[0,0,0,0,0,0,0],"sum_hessian":[5.4100938E3,9.191971E1,5.318174E3,8.968549E1,2.2342162E0,4.899386E3,4.187878E2],"tree_param":{"num_deleted":"0","num_feature":"17","num_nodes":"7","size_leaf_vector":"0"}},{"base_weights":[-2.3265483E-3,-2.0157471E-1,1.9662602E-2,-3.5258773E-1,2.2915952E-2,1.1614577E-2,5.422353E-1],"categories":[],"categories_nodes":[],"categories_segments":[],"categories_sizes":[],"default_left":[1,1,1,0,0,0,0],"id":19,"left_children":[1,3,5,-1,-1,-1,-1],"loss_changes":[2.3690805E1,1.8227684E1,2.0475008E1,0E0,0E0,0E0,0E0],"parents":[2147483647,0,0,1,1,2,2],"right_children":[2,4,6,-1,-1,-1,-1],"split_conditions":[-8.144939E-1,2.6102815E0,1.53033E0,-1.410351E-1,9.166381E-3,4.645831E-3,2.1689413E-1],"split_indices":[4,14,15,0,0,0,0],"split_type":[0,0,0,0,0,0,0],"sum_hessian":[5.4053535E3,5.364354E2,4.868918E3,3.2036078E2,2.1607466E2,4.7960767E3,7.2841064E1],"tree_param":{"num_deleted":"0","num_feature":"17","num_nodes":"7","size_leaf_vector":"0"}},{"base_weights":[-1.7608653E-3,5.6640916E-2,-6.9406554E-2,5.1807087E-2,1.942816E0,-1.20497E-1,2.5462598E-1],"categories":[],"categories_nodes":[],"categories_segments":[],"categories_sizes":[],"default_left":[1,1,1,0,0,0,0],"id":20,"left_children":[1,3,5,-1,-1,-1,-1],"loss_changes":[2.1264004E1,2.6235989E1,4.131614E1,0E0,0E0,0E0,0E0],"parents":[2147483647,0,0,1,1,2,2],"right_children":[2,4,6,-1,-1,-1,-1],"split_conditions":[-1.5059902E-1,-1.5133286E-1,1.1950939E0,2.0722834E-2,7.7712643E-1,-4.81988E-2,1.0185039E-1],"split_indices":[15,15,16,0,0,0,0],"split_type":[0,0,0,0,0,0,0],"sum_hessian":[5.3804404E3,2.8875994E3,2.4928408E3,2.881243E3,6.3564863E0,2.1538672E3,3.389737E2],"tree_param":{"num_deleted":"0","num_feature":"17","num_nodes":"7","size_leaf_vector":"0"}},{"base_weights":[-1.284497E-3,-3.1796973E-2,1.2669548E-1,-1.9723948E-2,-4.0682068E-1,-1.2038075E-1,1.7221932E-1],"categories":[],"categories_nodes":[],"categories_segments":[],"categories_sizes":[],"default_left":[1,1,1,0,0,0,0],"id":21,"left_children":[1,3,5,-1,-1,-1,-1],"loss_changes":[2.101111E1,1.966334E1,1.167189E1,0E0,0E0,0E0,0E0],"parents":[2147483647,0,0,1,1,2,2],"right_children":[2,4,6,-1,-1,-1,-1],"split_conditions":[1.622988E0,2.1307676E0,-6.8131715E-1,-7.889579E-3,-1.6272828E-1,-4.81523E-2,6.888773E-2],"split_indices":[0,11,12,0,0,0,0],"split_type":[0,0,0,0,0,0,0],"sum_hessian":[5.3785537E3,4.3436978E3,1.0348556E3,4.2092437E3,1.3445432E2,1.6075096E2,8.741047E2],"tree_param":{"num_deleted":"0","num_feature":"17","num_nodes":"7","size_leaf_vector":"0"}},{"base_weights":[-9.5186627E-4,-3.432132E-2,9.738072E-2,-1.03720784E-1,7.10768E-2,3.3272895E-1,1.8257683E-2],"categories":[],"categories_nodes":[],"categories_segments":[],"categories_sizes":[],"default_left":[1,1,1,0,0,0,0],"id":22,"left_children":[1,3,5,-1,-1,-1,-1],"loss_changes":[1.7615303E1,2.932543E1,2.5322739E1,0E0,0E0,0E0,0E0],"parents":[2147483647,0,0,1,1,2,2],"right_children":[2,4,6,-1,-1,-1,-1],"split_conditions":[-3.1001635E-3,9.516225E-1,-2.738696E-1,-4.1488316E-2,2.843072E-2,1.3309158E-1,7.3030735E-3],"split_indices":[9,5,1,0,0,0,0],"split_type":[0,0,0,0,0,0,0],"sum_hessian":[5.366365E3,4.0071711E3,1.3591943E3,2.4162231E3,1.5909479E3,3.4117578E2,1.01801855E3],"tree_param":{"num_deleted":"0","num_feature":"17","num_nodes":"7","size_leaf_vector":"0"}},{"base_weights":[-7.27496E-4,-2.6085272E-1,1.01445215E-2,-6.3642365E-1,3.5239154E-1,9.7365595E-2,-3.0091336E-2],"categories":[],"categories_nodes":[],"categories_segments":[],"categories_sizes":[],"default_left":[1,1,1,0,0,0,0],"id":23,"left_children":[1,3,5,-1,-1,-1,-1],"loss_changes":[1.516092E1,4.9758278E1,1.8061806E1,0E0,0E0,0E0,0E0],"parents":[2147483647,0,0,1,1,2,2],"right_children":[2,4,6,-1,-1,-1,-1],"split_conditions":[-4.572368E-1,9.949624E-1,2.5144592E-1,-2.5456947E-1,1.4095663E-1,3.8946237E-2,-1.2036535E-2],"split_indices":[14,6,5,0,0,0,0],"split_type":[0,0,0,0,0,0,0],"sum_hessian":[5.358906E3,2.1406909E2,5.144837E3,1.3273811E2,8.133098E1,1.6236841E3,3.5211526E3],"tree_param":{"num_deleted":"0","num_feature":"17","num_nodes":"7","size_leaf_vector":"0"}},{"base_weights":[-1.2817405E-3,2.7778322E-2,-1.0129247E-1,5.244402E-3,1.8607856E-1,4.5162663E-1,-1.5073022E-1],"categories":[],"categories_nodes":[],"categories_segments":[],"categories_sizes":[],"default_left":[1,1,1,0,0,0,0],"id":24,"left_children":[1,3,5,-1,-1,-1,-1],"loss_changes":[1.551663E1,1.4755915E1,3.292616E1,0E0,0E0,0E0,0E0],"parents":[2147483647,0,0,1,1,2,2],"right_children":[2,4,6,-1,-1,-1,-1],"split_conditions":[4.685662E-2,1.018467E-2,-1.2636082E0,2.097761E-3,7.443143E-2,1.8065065E-1,-6.029209E-2],"split_indices":[15,8,13,0,0,0,0],"split_type":[0,0,0,0,0,0,0],"sum_hessian":[5.3369624E3,4.135914E3,1.2010481E3,3.6214385E3,5.144759E2,9.790697E1,1.1031411E3],"tree_param":{"num_deleted":"0","num_feature":"17","num_nodes":"7","size_leaf_vector":"0"}},{"base_weights":[-9.178688E-4,3.981276E-2,-7.118012E-2,3.1222166E-2,7.9993254E-1,-7.202343E-1,-4.138423E-2],"categories":[],"categories_nodes":[],"categories_segments":[],"categories_sizes":[],"default_left":[1,1,1,0,0,0,0],"id":25,"left_children":[1,3,5,-1,-1,-1,-1],"loss_changes":[1.5256829E1,2.2012152E1,3.7804283E1,0E0,0E0,0E0,0E0],"parents":[2147483647,0,0,1,1,2,2],"right_children":[2,4,6,-1,-1,-1,-1],"split_conditions":[-7.005888E-3,1.2291389E0,-4.572368E-1,1.2488867E-2,3.1997302E-1,-2.8809372E-1,-1.6553693E-2],"split_indices":[8,15,14,0,0,0,0],"split_type":[0,0,0,0,0,0,0],"sum_hessian":[5.329162E3,3.3738145E3,1.9553477E3,3.3371404E3,3.667404E1,8.480648E1,1.8705411E3],"tree_param":{"num_deleted":"0","num_feature":"17","num_nodes":"7","size_leaf_vector":"0"}},{"base_weights":[-9.89504E-4,-4.088947E-2,6.697026E-2,-1.24849424E-1,4.8491906E-2,-2.4532586E-2,1.2880798E-1],"categories":[],"categories_nodes":[],"categories_segments":[],"categories_sizes":[],"default_left":[1,1,1,0,0,0,0],"id":26,"left_children":[1,3,5,-1,-1,-1,-1],"loss_changes":[1.44063225E1,2.5127146E1,1.1123838E1,0E0,0E0,0E0,0E0],"parents":[2147483647,0,0,1,1,2,2],"right_children":[2,4,6,-1,-1,-1,-1],"split_conditions":[7.2874546E-1,-3.5617363E-1,1.1093247E0,-4.993977E-2,1.9396763E-2,-9.813035E-3,5.152319E-2],"split_indices":[13,0,10,0,0,0,0],"split_type":[0,0,0,0,0,0,0],"sum_hessian":[5.3108545E3,3.3464897E3,1.9643647E3,1.7253727E3,1.6211171E3,7.924136E2,1.1719512E3],"tree_param":{"num_deleted":"0","num_feature":"17","num_nodes":"7","size_leaf_vector":"0"}},{"base_weights":[-7.9192466E-4,-2.4561586E-3,1.5219164E0,6.1368996E-1,-6.579966E-3,2.840599E-1,1.820674E0],"categories":[],"categories_nodes":[],"categories_segments":[],"categories_sizes":[],"default_left":[1,1,1,0,0,0,0],"id":27,"left_children":[1,3,5,-1,-1,-1,-1],"loss_changes":[1.3453176E1,1.3476981E1,1.626234E0,0E0,0E0,0E0,0E0],"parents":[2147483647,0,0,1,1,2,2],"right_children":[2,4,6,-1,-1,-1,-1],"split_conditions":[2.46709E0,-6.5936816E-1,-1.6047579E-1,2.45476E-1,-2.6319863E-3,1.1362397E-1,7.282696E-1],"split_indices":[1,16,15,0,0,0,0],"split_type":[0,0,0,0,0,0,0],"sum_hessian":[5.3062925E3,5.3014966E3,4.795849E0,3.4263767E1,5.267233E3,1.3117237E0,3.484125E0],"tree_param":{"num_deleted":"0","num_feature":"17","num_nodes":"7","size_leaf_vector":"0"}},{"base_weights":[-2.6398493E-4,2.2088164E-3,-9.7094715E-1,5.3835947E-2,-3.9828595E-2,-1.2679982E0,2.1682669E-1],"categories":[],"categories_nodes":[],"categories_segments":[],"categories_sizes":[],"default_left":[1,1,1,0,0,0,0],"id":28,"left_children":[1,3,5,-1,-1,-1,-1],"loss_changes":[1.27337E1,1.1486475E1,5.031129E0,0E0,0E0,0E0,0E0],"parents":[2147483647,0,0,1,1,2,2],"right_children":[2,4,6,-1,-1,-1,-1],"split_conditions":[3.392488E0,-3.1169388E-1,-1.9006914E-2,2.153438E-2,-1.5931439E-2,-5.071993E-1,8.673068E-2],"split_indices":[11,16,8,0,0,0,0],"split_type":[0,0,0,0,0,0,0],"sum_hessian":[5.303137E3,5.290657E3,1.2480148E1,2.3743643E3,2.916293E3,9.929365E0,2.550783E0],"tree_param":{"num_deleted":"0","num_feature":"17","num_nodes":"7","size_leaf_vector":"0"}},{"base_weights":[-3.8654477E-4,6.336593E-2,-2.432624E-2,1.6725251E-1,-1.6336823E-1,-8.2199775E-2,3.40377E-2],"categories":[],"categories_nodes":[],"categories_segments":[],"categories_sizes":[],"default_left":[1,1,1,0,0,0,0],"id":29,"left_children":[1,3,5,-1,-1,-1,-1],"loss_changes":[8.083109E0,3.4083626E1,1.3008156E1,0E0,0E0,0E0,0E0],"parents":[2147483647,0,0,1,1,2,2],"right_children":[2,4,6,-1,-1,-1,-1],"split_conditions":[-2.738696E-1,-7.985771E-3,-3.5617363E-1,6.6901006E-2,-6.534729E-2,-3.287991E-2,1.3615081E-2],"split_indices":[1,16,0,0,0,0,0],"split_type":[0,0,0,0,0,0,0],"sum_hessian":[5.2941704E3,1.4448429E3,3.8493276E3,9.9102893E2,4.53814E2,1.932579E3,1.9167485E3],"tree_param":{"num_deleted":"0","num_feature":"17","num_nodes":"7","size_leaf_vector":"0"}},{"base_weights":[-4.5257123E-4,-2.8733816E-3,6.1925185E-1,2.5107127E-2,-5.2370194E-2,-5.6671405E-1,8.127273E-1],"categories":[],"categories_nodes":[],"categories_segments":[],"categories_sizes":[],"default_left":[1,1,1,0,0,0,0],"id":30,"left_children":[1,3,5,-1,-1,-1,-1],"loss_changes":[7.9300985E0,7.293497E0,5.1802835E0,0E0,0E0,0E0,0E0],"parents":[2147483647,0,0,1,1,2,2],"right_children":[2,4,6,-1,-1,-1,-1],"split_conditions":[1.3105062E-1,-7.005888E-3,-6.338619E-2,1.0042851E-2,-2.0948078E-2,-2.2668563E-1,3.2509091E-1],"split_indices":[8,8,15,0,0,0,0],"split_type":[0,0,0,0,0,0,0],"sum_hessian":[5.283888E3,5.264319E3,1.9569147E1,3.3634539E3,1.900865E3,2.4741256E0,1.709502E1],"tree_param":{"num_deleted":"0","num_feature":"17","num_nodes":"7","size_leaf_vector":"0"}},{"base_weights":[-3.61578E-4,1.3374187E-3,-7.954897E-1,1.7562466E-4,1.1182972E0,-1.1082846E0,1.4675637E-1],"categories":[],"categories_nodes":[],"categories_segments":[],"categories_sizes":[],"default_left":[1,1,1,0,0,0,0],"id":31,"left_children":[1,3,5,-1,-1,-1,-1],"loss_changes":[7.140058E0,6.8441067E0,3.4840722E0,0E0,0E0,0E0,0E0],"parents":[2147483647,0,0,1,1,2,2],"right_children":[2,4,6,-1,-1,-1,-1],"split_conditions":[3.392488E0,2.46709E0,-1.9006914E-2,7.0249866E-5,4.4731888E-1,-4.4331384E-1,5.8702547E-2],"split_indices":[11,1,8,0,0,0,0],"split_type":[0,0,0,0,0,0,0],"sum_hessian":[5.283542E3,5.2732725E3,1.026939E1,5.2687925E3,4.480122E0,7.577645E0,2.6917455E0],"tree_param":{"num_deleted":"0","num_feature":"17","num_nodes":"7","size_leaf_vector":"0"}},{"base_weights":[-2.7884063E-4,5.124739E-2,-2.412473E-2,3.1560197E-1,-8.139882E-3,-7.771951E-2,6.0434017E-2],"categories":[],"categories_nodes":[],"categories_segments":[],"categories_sizes":[],"default_left":[1,1,1,0,0,0,0],"id":32,"left_children":[1,3,5,-1,-1,-1,-1],"loss_changes":[6.4918175E0,2.6245228E1,1.6373692E1,0E0,0E0,0E0,0E0],"parents":[2147483647,0,0,1,1,2,2],"right_children":[2,4,6,-1,-1,-1,-1],"split_conditions":[2.5144592E-1,-1.7994966E-2,-1.4362033E-2,1.2624079E-1,-3.2559528E-3,-3.1087805E-2,2.4173608E-2],"split_indices":[5,9,9,0,0,0,0],"split_type":[0,0,0,0,0,0,0],"sum_hessian":[5.281526E3,1.6705817E3,3.6109443E3,3.0566043E2,1.3649213E3,2.2101772E3,1.4007671E3],"tree_param":{"num_deleted":"0","num_feature":"17","num_nodes":"7","size_leaf_vector":"0"}},{"base_weights":[-3.154065E-4,-1.15140695E-2,1.24494225E-1,3.6351196E-2,-4.9097482E-2,7.7590877E-1,4.9004544E-2],"categories":[],"categories_nodes":[],"categories_segments":[],"categories_sizes":[],"default_left":[1,1,1,0,0,0,0],"id":33,"left_children":[1,3,5,-1,-1,-1,-1],"loss_changes":[7.3646407E0,8.700085E0,2.129652E1,0E0,0E0,0E0,0E0],"parents":[2147483647,0,0,1,1,2,2],"right_children":[2,4,6,-1,-1,-1,-1],"split_conditions":[2.596577E0,-2.1746024E-1,-8.005565E-2,1.4540479E-2,-1.9638993E-2,3.103635E-1,1.9601818E-2],"split_indices":[13,15,14,0,0,0,0],"split_type":[0,0,0,0,0,0,0],"sum_hessian":[5.267085E3,4.8342363E3,4.328487E2,2.1262861E3,2.7079502E3,4.3988174E1,3.888605E2],"tree_param":{"num_deleted":"0","num_feature":"17","num_nodes":"7","size_leaf_vector":"0"}},{"base_weights":[-4.7875757E-4,1.7038031E-1,-7.268824E-3,-1.5181837E0,2.2831017E-1,-5.205916E-3,-8.386865E-1],"categories":[],"categories_nodes":[],"categories_segments":[],"categories_sizes":[],"default_left":[1,1,1,0,0,0,0],"id":34,"left_children":[1,3,5,-1,-1,-1,-1],"loss_changes":[6.11624E0,2.0057386E1,8.6920595E0,0E0,0E0,0E0,0E0],"parents":[2147483647,0,0,1,1,2,2],"right_children":[2,4,6,-1,-1,-1,-1],"split_conditions":[-1.3881302E0,-3.5990152E0,2.813148E0,-6.072735E-1,9.132407E-2,-2.0823663E-3,-3.354746E-1],"split_indices":[13,11,15,0,0,0,0],"split_type":[0,0,0,0,0,0,0],"sum_hessian":[5.269897E3,2.0050398E2,5.069393E3,5.8144565E0,1.9468953E2,5.0578496E3,1.1543242E1],"tree_param":{"num_deleted":"0","num_feature":"17","num_nodes":"7","size_leaf_vector":"0"}},{"base_weights":[-5.3100975E-4,-1.0532211E-1,1.0140504E-2,-2.1762398E-1,6.937614E-2,4.5037013E-1,6.2114606E-3],"categories":[],"categories_nodes":[],"categories_segments":[],"categories_sizes":[],"default_left":[1,1,1,0,0,0,0],"id":35,"left_children":[1,3,5,-1,-1,-1,-1],"loss_changes":[5.8923273E0,9.569342E0,8.268805E0,0E0,0E0,0E0,0E0],"parents":[2147483647,0,0,1,1,2,2],"right_children":[2,4,6,-1,-1,-1,-1],"split_conditions":[-8.144939E-1,2.47439E-1,-6.507236E-1,-8.7049596E-2,2.7750457E-2,1.8014805E-1,2.4845842E-3],"split_indices":[4,11,16,0,0,0,0],"split_type":[0,0,0,0,0,0,0],"sum_hessian":[5.267145E3,4.8599072E2,4.7811543E3,2.9567514E2,1.9031558E2,4.1289124E1,4.739865E3],"tree_param":{"num_deleted":"0","num_feature":"17","num_nodes":"7","size_leaf_vector":"0"}},{"base_weights":[-3.7721335E-4,-4.6109578E-1,2.0288988E-3,-9.8267627E-1,-1.5033475E-1,1.683672E-1,-5.505211E-3],"categories":[],"categories_nodes":[],"categories_segments":[],"categories_sizes":[],"default_left":[1,1,1,0,0,0,0],"id":36,"left_children":[1,3,5,-1,-1,-1,-1],"loss_changes":[5.8350177E0,4.284847E0,6.5633693E0,0E0,0E0,0E0,0E0],"parents":[2147483647,0,0,1,1,2,2],"right_children":[2,4,6,-1,-1,-1,-1],"split_conditions":[-9.904909E-1,7.385644E-1,-8.297309E-1,-3.9307052E-1,-6.01339E-2,6.7346886E-2,-2.2020845E-3],"split_indices":[12,14,12,0,0,0,0],"split_type":[0,0,0,0,0,0,0],"sum_hessian":[5.261849E3,2.634692E1,5.2355024E3,9.029564E0,1.7317356E1,2.2593587E2,5.0095664E3],"tree_param":{"num_deleted":"0","num_feature":"17","num_nodes":"7","size_leaf_vector":"0"}},{"base_weights":[-4.2064436E-4,-9.7734235E-2,1.1957391E-2,2.9445449E-2,-3.522157E-1,2.4777786E-1,-1.8403063E-3],"categories":[],"categories_nodes":[],"categories_segments":[],"categories_sizes":[],"default_left":[1,1,1,0,0,0,0],"id":37,"left_children":[1,3,5,-1,-1,-1,-1],"loss_changes":[6.3377748E0,1.9226387E1,1.5188525E1,0E0,0E0,0E0,0E0],"parents":[2147483647,0,0,1,1,2,2],"right_children":[2,4,6,-1,-1,-1,-1],"split_conditions":[-6.816283E-1,-7.6438713E-1,-6.77093E-1,1.177818E-2,-1.4088629E-1,9.911115E-2,-7.3612254E-4],"split_indices":[12,12,12,0,0,0,0],"split_type":[0,0,0,0,0,0,0],"sum_hessian":[5.259554E3,5.9273065E2,4.666823E3,3.9580658E2,1.9692404E2,2.5702228E2,4.4098013E3],"tree_param":{"num_deleted":"0","num_feature":"17","num_nodes":"7","size_leaf_vector":"0"}},{"base_weights":[-3.121054E-4,-2.6360158E-2,4.3235965E-2,-9.4887935E-2,2.3393897E-2,3.9990954E-2,1.3111489E0],"categories":[],"categories_nodes":[],"categories_segments":[],"categories_sizes":[],"default_left":[1,1,1,0,0,0,0],"id":38,"left_children":[1,3,5,-1,-1,-1,-1],"loss_changes":[5.9704547E0,1.1231224E1,8.052691E0,0E0,0E0,0E0,0E0],"parents":[2147483647,0,0,1,1,2,2],"right_children":[2,4,6,-1,-1,-1,-1],"split_conditions":[7.2874546E-1,1.9308439E-1,2.1963704E0,-3.7955176E-2,9.3575595E-3,1.5996382E-2,5.2445954E-1],"split_indices":[13,11,7,0,0,0,0],"split_type":[0,0,0,0,0,0,0],"sum_hessian":[5.2613574E3,3.2924126E3,1.9689447E3,1.3845385E3,1.9078741E3,1.9649473E3,3.9974136E0],"tree_param":{"num_deleted":"0","num_feature":"17","num_nodes":"7","size_leaf_vector":"0"}},{"base_weights":[-1.8392794E-4,5.7156984E-2,-2.660371E-2,-1.8042855E-1,1.108395E-1,4.277904E-2,-8.452328E-2],"categories":[],"categories_nodes":[],"categories_segments":[],"categories_sizes":[],"default_left":[1,1,1,0,0,0,0],"id":39,"left_children":[1,3,5,-1,-1,-1,-1],"loss_changes":[7.963288E0,2.1166607E1,1.4464644E1,0E0,0E0,0E0,0E0],"parents":[2147483647,0,0,1,1,2,2],"right_children":[2,4,6,-1,-1,-1,-1],"split_conditions":[2.5144592E-1,1.6312751E-1,-2.1597452E-2,-7.217142E-2,4.43358E-2,1.7111616E-2,-3.3809315E-2],"split_indices":[5,14,8,0,0,0,0],"split_type":[0,0,0,0,0,0,0],"sum_hessian":[5.25452E3,1.6570127E3,3.5975073E3,3.0496265E2,1.3520502E3,1.6369004E3,1.9606068E3],"tree_param":{"num_deleted":"0","num_feature":"17","num_nodes":"7","size_leaf_vector":"0"}},{"base_weights":[-3.1480784E-4,3.7901397E-3,-2.7278405E-1,-2.1033E-2,6.822241E-2,3.8006812E-1,-4.2021704E-1],"categories":[],"categories_nodes":[],"categories_segments":[],"categories_sizes":[],"default_left":[1,1,1,0,0,0,0],"id":40,"left_children":[1,3,5,-1,-1,-1,-1],"loss_changes":[5.8497615E0,8.24254E0,7.6313934E0,0E0,0E0,0E0,0E0],"parents":[2147483647,0,0,1,1,2,2],"right_children":[2,4,6,-1,-1,-1,-1],"split_conditions":[5.726726E-1,-4.331924E-3,-3.2222807E-1,-8.4132E-3,2.7288964E-2,1.5202725E-1,-1.6808681E-1],"split_indices":[7,9,12,0,0,0,0],"split_type":[0,0,0,0,0,0,0],"sum_hessian":[5.2282124E3,5.1515864E3,7.6626305E1,3.7193467E3,1.4322397E3,1.3825832E1,6.2800472E1],"tree_param":{"num_deleted":"0","num_feature":"17","num_nodes":"7","size_leaf_vector":"0"}},{"base_weights":[-2.044597E-4,1.1973914E-2,-8.4374666E-2,6.6365725E-3,5.257198E-1,-3.6352705E-2,-8.888827E-1],"categories":[],"categories_nodes":[],"categories_segments":[],"categories_sizes":[],"default_left":[1,1,1,0,0,0,0],"id":41,"left_children":[1,3,5,-1,-1,-1,-1],"loss_changes":[5.357979E0,1.2517571E1,2.549278E1,0E0,0E0,0E0,0E0],"parents":[2147483647,0,0,1,1,2,2],"right_children":[2,4,6,-1,-1,-1,-1],"split_conditions":[8.6894995E-1,4.8021826E-1,4.3131942E-1,2.654629E-3,2.1028793E-1,-1.4541082E-2,-3.555531E-1],"split_indices":[12,15,11,0,0,0,0],"split_type":[0,0,0,0,0,0,0],"sum_hessian":[5.2250244E3,4.5653354E3,6.59689E2,4.519396E3,4.5939392E1,6.2351587E2,3.6173157E1],"tree_param":{"num_deleted":"0","num_feature":"17","num_nodes":"7","size_leaf_vector":"0"}},{"base_weights":[-4.232084E-4,-3.0760197E-2,3.9699532E-2,-2.188418E-2,-4.8854813E-1,1.6332307E-1,-1.2276223E-2],"categories":[],"categories_nodes":[],"categories_segments":[],"categories_sizes":[],"default_left":[1,1,1,0,0,0,0],"id":42,"left_children":[1,3,5,-1,-1,-1,-1],"loss_changes":[6.3574057E0,1.2074338E1,1.4451454E1,0E0,0E0,0E0,0E0],"parents":[2147483647,0,0,1,1,2,2],"right_children":[2,4,6,-1,-1,-1,-1],"split_conditions":[-6.0950708E-2,-8.892065E-2,1.6312751E-1,-8.753672E-3,-1.9541925E-1,6.532923E-2,-4.910489E-3],"split_indices":[12,12,14,0,0,0,0],"split_type":[0,0,0,0,0,0,0],"sum_hessian":[5.2209585E3,2.9731667E3,2.2477915E3,2.9176445E3,5.5522186E1,6.646912E2,1.5831003E3],"tree_param":{"num_deleted":"0","num_feature":"17","num_nodes":"7","size_leaf_vector":"0"}},{"base_weights":[-4.504999E-4,1.841281E-4,-1.5138576E0,-2.5370505E-2,3.383308E-2],"categories":[],"categories_nodes":[],"categories_segments":[],"categories_sizes":[],"default_left":[1,1,0,0,0],"id":43,"left_children":[1,3,-1,-1,-1],"loss_changes":[5.0386815E0,4.5106845E0,0E0,0E0,0E0],"parents":[2147483647,0,0,1,1],"right_children":[2,4,-1,-1,-1],"split_conditions":[5.5325237E1,1.1093247E0,-6.055431E-1,-1.0148202E-2,1.3533232E-2],"split_indices":[15,10,0,0,0],"split_type":[0,0,0,0,0],"sum_hessian":[5.2448745E3,5.2436753E3,1.1989903E0,2.9804353E3,2.26324E3],"tree_param":{"num_deleted":"0","num_feature":"17","num_nodes":"5","size_leaf_vector":"0"}},{"base_weights":[-3.829451E-4,3.3348417E-3,-2.2491434E-1,-2.0163178E-3,1.5671857E-1,1.3423096E0,-2.7036008E-1],"categories":[],"categories_nodes":[],"categories_segments":[],"categories_sizes":[],"default_left":[1,1,1,0,0,0,0],"id":44,"left_children":[1,3,5,-1,-1,-1,-1],"loss_changes":[4.382728E0,4.239542E0,6.4538183E0,0E0,0E0,0E0,0E0],"parents":[2147483647,0,0,1,1,2,2],"right_children":[2,4,6,-1,-1,-1,-1],"split_conditions":[2.2296467E0,1.9023627E0,-5.9657276E-1,-8.0652715E-4,6.268743E-2,5.369238E-1,-1.0814404E-1],"split_indices":[11,11,16,0,0,0,0],"split_type":[0,0,0,0,0,0,0],"sum_hessian":[5.2483877E3,5.1638696E3,8.4518105E1,4.990742E3,1.7312717E2,1.5775855E0,8.294052E1],"tree_param":{"num_deleted":"0","num_feature":"17","num_nodes":"7","size_leaf_vector":"0"}},{"base_weights":[-2.1354212E-4,-7.9847634E-4,1.2415781E0,1.6065425E-3,-3.2085806E-1],"categories":[],"categories_nodes":[],"categories_segments":[],"categories_sizes":[],"default_left":[1,1,0,0,0],"id":45,"left_children":[1,3,-1,-1,-1],"loss_changes":[3.8119793E0,4.0379853E0,0E0,0E0,0E0],"parents":[2147483647,0,0,1,1],"right_children":[2,4,-1,-1,-1],"split_conditions":[6.7968473E0,9.334943E-1,4.9663123E-1,6.42617E-4,-1.2834322E-1],"split_indices":[7,7,0,0,0],"split_type":[0,0,0,0,0],"sum_hessian":[5.245646E3,5.2441753E3,1.4708623E0,5.2060503E3,3.8124767E1],"tree_param":{"num_deleted":"0","num_feature":"17","num_nodes":"5","size_leaf_vector":"0"}},{"base_weights":[-6.710953E-5,-2.6831022E-2,2.8364317E-2,-1.11683E-1,5.2155435E-2,1.898602E-1,3.158872E-3],"categories":[],"categories_nodes":[],"categories_segments":[],"categories_sizes":[],"default_left":[1,1,1,0,0,0,0],"id":46,"left_children":[1,3,5,-1,-1,-1,-1],"loss_changes":[3.9935997E0,1.8124517E1,1.03584385E1,0E0,0E0,0E0,0E0],"parents":[2147483647,0,0,1,1,2,2],"right_children":[2,4,6,-1,-1,-1,-1],"split_conditions":[-1.2423142E-2,9.516225E-1,-3.283891E-1,-4.46732E-2,2.0862175E-2,7.594408E-2,1.2635489E-3],"split_indices":[9,5,15,0,0,0,0],"split_type":[0,0,0,0,0,0,0],"sum_hessian":[5.246271E3,2.7024124E3,2.5438586E3,1.3026326E3,1.3997798E3,3.4254944E2,2.201309E3],"tree_param":{"num_deleted":"0","num_feature":"17","num_nodes":"7","size_leaf_vector":"0"}},{"base_weights":[-1.19628436E-4,-4.8856303E-2,1.685659E-2,-7.3529524E-3,-6.9054604E-1,1.6916534E-1,-5.322831E-3],"categories":[],"categories_nodes":[],"categories_segments":[],"categories_sizes":[],"default_left":[1,1,1,0,0,0,0],"id":47,"left_children":[1,3,5,-1,-1,-1,-1],"loss_changes":[4.3332486E0,3.6029144E1,1.312283E1,0E0,0E0,0E0,0E0],"parents":[2147483647,0,0,1,1,2,2],"right_children":[2,4,6,-1,-1,-1,-1],"split_conditions":[-4.7586286E-1,-4.809268E-1,-4.4442803E-1,-2.941181E-3,-2.762184E-1,6.7666136E-2,-2.1291326E-3],"split_indices":[12,12,12,0,0,0,0],"split_type":[0,0,0,0,0,0,0],"sum_hessian":[5.2354165E3,1.3520283E3,3.883388E3,1.2708439E3,8.118446E1,4.9278018E2,3.3906077E3],"tree_param":{"num_deleted":"0","num_feature":"17","num_nodes":"7","size_leaf_vector":"0"}},{"base_weights":[-1.2383595E-4,1.089508E-2,-7.436119E-2,4.6651275E-3,5.6819403E-1,-7.444934E-1,-3.2239288E-2],"categories":[],"categories_nodes":[],"categories_segments":[],"categories_sizes":[],"default_left":[1,1,1,0,0,0,0],"id":48,"left_children":[1,3,5,-1,-1,-1,-1],"loss_changes":[4.2898164E0,1.5851665E1,1.9107904E1,0E0,0E0,0E0,0E0],"parents":[2147483647,0,0,1,1,2,2],"right_children":[2,4,6,-1,-1,-1,-1],"split_conditions":[1.3200748E0,1.3142924E0,1.4033413E0,1.866051E-3,2.2727762E-1,-2.9779738E-1,-1.2895715E-2],"split_indices":[11,11,11,0,0,0,0],"split_type":[0,0,0,0,0,0,0],"sum_hessian":[5.242187E3,4.5654053E3,6.767816E2,4.5159307E3,4.9474472E1,3.903797E1,6.3774365E2],"tree_param":{"num_deleted":"0","num_feature":"17","num_nodes":"7","size_leaf_vector":"0"}},{"base_weights":[-3.2380284E-4,4.1274272E-2,-1.930034E-2,2.6648527E-1,-9.745835E-3,-6.028779E-2,4.459532E-2],"categories":[],"categories_nodes":[],"categories_segments":[],"categories_sizes":[],"default_left":[1,1,1,0,0,0,0],"id":49,"left_children":[1,3,5,-1,-1,-1,-1],"loss_changes":[4.137074E0,1.8867779E1,9.428234E0,0E0,0E0,0E0,0E0],"parents":[2147483647,0,0,1,1,2,2],"right_children":[2,4,6,-1,-1,-1,-1],"split_conditions":[2.5144592E-1,-1.7994966E-2,-1.4362033E-2,1.0659411E-1,-3.8983342E-3,-2.4115115E-2,1.7838128E-2],"split_indices":[5,9,9,0,0,0,0],"split_type":[0,0,0,0,0,0,0],"sum_hessian":[5.238857E3,1.640837E3,3.59802E3,3.022839E2,1.3385531E3,2.191978E3,1.406042E3],"tree_param":{"num_deleted":"0","num_feature":"17","num_nodes":"7","size_leaf_vector":"0"}},{"base_weights":[-2.831733E-4,-2.2552444E-2,2.907124E-2,-5.4268576E-2,9.023665E-2,1.030057E-1,-6.0603593E-2],"categories":[],"categories_nodes":[],"categories_segments":[],"categories_sizes":[],"default_left":[1,1,1,0,0,0,0],"id":50,"left_children":[1,3,5,-1,-1,-1,-1],"loss_changes":[3.4187288E0,1.0642797E1,1.4963793E1,0E0,0E0,0E0,0E0],"parents":[2147483647,0,0,1,1,2,2],"right_children":[2,4,6,-1,-1,-1,-1],"split_conditions":[1.1093247E0,1.622988E0,-3.5617363E-1,-2.170743E-2,3.609466E-2,4.120228E-2,-2.4241438E-2],"split_indices":[10,0,0,0,0,0,0],"split_type":[0,0,0,0,0,0,0],"sum_hessian":[5.227799E3,2.9727783E3,2.2550205E3,2.3207153E3,6.5206305E2,1.2359033E3,1.01911725E3],"tree_param":{"num_deleted":"0","num_feature":"17","num_nodes":"7","size_leaf_vector":"0"}},{"base_weights":[-2.6378437E-4,9.669683E-3,-6.906743E-2,7.977968E-3,1.1074225E0,-2.0377949E-1,1.3130616E-1],"categories":[],"categories_nodes":[],"categories_segments":[],"categories_sizes":[],"default_left":[1,1,1,0,0,0,0],"id":51,"left_children":[1,3,5,-1,-1,-1,-1],"loss_changes":[3.574491E0,8.478429E0,1.7837E1,0E0,0E0,0E0,0E0],"parents":[2147483647,0,0,1,1,2,2],"right_children":[2,4,6,-1,-1,-1,-1],"split_conditions":[8.6894995E-1,8.4139186E-1,-2.4942279E-1,3.1911873E-3,4.42969E-1,-8.1511796E-2,5.252246E-2],"split_indices":[12,12,6,0,0,0,0],"split_type":[0,0,0,0,0,0,0],"sum_hessian":[5.228025E3,4.569209E3,6.5881604E2,4.5631836E3,6.0249205E0,3.9394684E2,2.648692E2],"tree_param":{"num_deleted":"0","num_feature":"17","num_nodes":"7","size_leaf_vector":"0"}},{"base_weights":[-1.5493251E-4,-2.3297502E-2,3.0203454E-2,-1.1698431E-1,2.42175E-2,-4.648132E-3,1.8194793E-1],"categories":[],"categories_nodes":[],"categories_segments":[],"categories_sizes":[],"default_left":[1,1,1,0,0,0,0],"id":52,"left_children":[1,3,5,-1,-1,-1,-1],"loss_changes":[3.6681156E0,1.3190821E1,1.1944538E1,0E0,0E0,0E0,0E0],"parents":[2147483647,0,0,1,1,2,2],"right_children":[2,4,6,-1,-1,-1,-1],"split_conditions":[-6.0950708E-2,3.6282718E-1,4.54449E-1,-4.6793725E-2,9.687E-3,-1.8592527E-3,7.277917E-2],"split_indices":[12,14,11,0,0,0,0],"split_type":[0,0,0,0,0,0,0],"sum_hessian":[5.2189873E3,2.961575E3,2.2574124E3,9.9609045E2,1.9654845E3,1.836571E3,4.2084116E2],"tree_param":{"num_deleted":"0","num_feature":"17","num_nodes":"7","size_leaf_vector":"0"}},{"base_weights":[-3.2232632E-4,-3.0987451E-3,2.2457254E-1,-2.3883947E-3,-1.2526613E0,-3.0973705E-2,8.4604657E-1],"categories":[],"categories_nodes":[],"categories_segments":[],"categories_sizes":[],"default_left":[1,1,1,0,0,0,0],"id":53,"left_children":[1,3,5,-1,-1,-1,-1],"loss_changes":[3.2462153E0,4.5553308E0,1.0095109E1,0E0,0E0,0E0,0E0],"parents":[2147483647,0,0,1,1,2,2],"right_children":[2,4,6,-1,-1,-1,-1],"split_conditions":[8.4559076E-2,8.280867E-2,5.092617E-1,-9.5535786E-4,-5.0106454E-1,-1.2389482E-2,3.3841863E-1],"split_indices":[8,8,1,0,0,0,0],"split_type":[0,0,0,0,0,0,0],"sum_hessian":[5.196802E3,5.134402E3,6.240006E1,5.132486E3,1.9158002E0,4.4891228E1,1.7508831E1],"tree_param":{"num_deleted":"0","num_feature":"17","num_nodes":"7","size_leaf_vector":"0"}},{"base_weights":[-2.7350333E-4,5.013688E-1,-1.5051783E-3,-2.0540151E-1,9.9994314E-1,-5.2761453E-1,1.2544722E-3],"categories":[],"categories_nodes":[],"categories_segments":[],"categories_sizes":[],"default_left":[1,1,1,0,0,0,0],"id":54,"left_children":[1,3,5,-1,-1,-1,-1],"loss_changes":[3.211946E0,4.6920505E0,7.529441E0,0E0,0E0,0E0,0E0],"parents":[2147483647,0,0,1,1,2,2],"right_children":[2,4,6,-1,-1,-1,-1],"split_conditions":[-5.031944E-1,-5.1547897E-1,-4.7678256E-1,-8.216061E-2,3.9997727E-1,-2.1104582E-1,5.0178886E-4],"split_indices":[15,15,15,0,0,0,0],"split_type":[0,0,0,0,0,0,0],"sum_hessian":[5.196278E3,1.1732538E1,5.1845454E3,5.0962315E0,6.6363072E0,2.6060665E1,5.158485E3],"tree_param":{"num_deleted":"0","num_feature":"17","num_nodes":"7","size_leaf_vector":"0"}},{"base_weights":[-1.57475E-4,8.363457E-4,-5.958564E-1,-5.8041164E-4,7.764018E-1,-9.6547186E-1,2.0879084E-1],"categories":[],"categories_nodes":[],"categories_segments":[],"categories_sizes":[],"default_left":[1,1,1,0,0,0,0],"id":55,"left_children":[1,3,5,-1,-1,-1,-1],"loss_changes":[3.0772789E0,5.7025557E0,2.7763894E0,0E0,0E0,0E0,0E0],"parents":[2147483647,0,0,1,1,2,2],"right_children":[2,4,6,-1,-1,-1,-1],"split_conditions":[3.392488E0,3.3340857E0,-1.9006914E-2,-2.3216466E-4,3.1056073E-1,-3.8618875E-1,8.351634E-2],"split_indices":[11,11,8,0,0,0,0],"split_type":[0,0,0,0,0,0,0],"sum_hessian":[5.196107E3,5.188449E3,7.6574345E0,5.1799863E3,8.463243E0,5.1101933E0,2.5472412E0],"tree_param":{"num_deleted":"0","num_feature":"17","num_nodes":"7","size_leaf_vector":"0"}},{"base_weights":[-1.3952788E-4,-7.781132E-2,7.396636E-3,-3.6192995E-1,5.1769216E-2,7.242788E-2,-1.4031163E-2],"categories":[],"categories_nodes":[],"categories_segments":[],"categories_sizes":[],"default_left":[1,1,1,0,0,0,0],"id":56,"left_children":[1,3,5,-1,-1,-1,-1],"loss_changes":[3.041701E0,1.6939205E1,6.6016736E0,0E0,0E0,0E0,0E0],"parents":[2147483647,0,0,1,1,2,2],"right_children":[2,4,6,-1,-1,-1,-1],"split_conditions":[-1.0246179E0,2.6102815E0,2.5144592E-1,-1.4477198E-1,2.0707687E-2,2.897115E-2,-5.6124656E-3],"split_indices":[5,14,5,0,0,0,0],"split_type":[0,0,0,0,0,0,0],"sum_hessian":[5.19442E3,4.5859244E2,4.735827E3,1.4308055E2,3.1551187E2,1.1731261E3,3.5627012E3],"tree_param":{"num_deleted":"0","num_feature":"17","num_nodes":"7","size_leaf_vector":"0"}},{"base_weights":[-2.9785495E-4,2.2661528E-2,-2.7935093E-2,5.9012644E-2,-8.2407884E-2,-6.546603E-2,8.6312346E-2],"categories":[],"categories_nodes":[],"categories_segments":[],"categories_sizes":[],"default_left":[1,1,1,0,0,0,0],"id":57,"left_children":[1,3,5,-1,-1,-1,-1],"loss_changes":[3.2893605E0,1.0819825E1,1.0091913E1,0E0,0E0,0E0,0E0],"parents":[2147483647,0,0,1,1,2,2],"right_children":[2,4,6,-1,-1,-1,-1],"split_conditions":[-1.5059902E-1,-2.4942279E-1,-2.4942279E-1,2.3605058E-2,-3.2963153E-2,-2.6186412E-2,3.452494E-2],"split_indices":[15,6,6,0,0,0,0],"split_type":[0,0,0,0,0,0,0],"sum_hessian":[5.1819023E3,2.8305933E3,2.3513093E3,2.1033354E3,7.272577E2,1.7702117E3,5.8109766E2],"tree_param":{"num_deleted":"0","num_feature":"17","num_nodes":"7","size_leaf_vector":"0"}},{"base_weights":[-2.359555E-4,2.611859E-1,-2.6533785E-3,1.3937808E0,1.23003244E-1,-8.963942E-2,5.0523956E-3],"categories":[],"categories_nodes":[],"categories_segments":[],"categories_sizes":[],"default_left":[1,1,1,0,0,0,0],"id":58,"left_children":[1,3,5,-1,-1,-1,-1],"loss_changes":[3.2746608E0,7.258978E0,3.4418263E0,0E0,0E0,0E0,0E0],"parents":[2147483647,0,0,1,1,2,2],"right_children":[2,4,6,-1,-1,-1,-1],"split_conditions":[-1.634286E0,-6.7517173E-1,-8.144939E-1,5.5751234E-1,4.92013E-2,-3.5855766E-2,2.0209583E-3],"split_indices":[4,12,4,0,0,0,0],"split_type":[0,0,0,0,0,0,0],"sum_hessian":[5.1795967E3,4.6477184E1,5.1331196E3,4.0658126E0,4.2411373E1,4.1685468E2,4.7162646E3],"tree_param":{"num_deleted":"0","num_feature":"17","num_nodes":"7","size_leaf_vector":"0"}},{"base_weights":[-5.661717E-5,-1.0986635E-3,5.75125E-1,3.970918E-4,-3.8388824E-1,-4.2221466E-1,1.168239E0],"categories":[],"categories_nodes":[],"categories_segments":[],"categories_sizes":[],"default_left":[1,1,1,0,0,0,0],"id":59,"left_children":[1,3,5,-1,-1,-1,-1],"loss_changes":[3.1048148E0,2.9607115E0,6.034665E0,0E0,0E0,0E0,0E0],"parents":[2147483647,0,0,1,1,2,2],"right_children":[2,4,6,-1,-1,-1,-1],"split_conditions":[1.6839585E0,7.1623936E0,-3.5617363E-1,1.5883672E-4,-1.535553E-1,-1.6888587E-1,4.6729562E-1],"split_indices":[1,12,0,0,0,0,0],"split_type":[0,0,0,0,0,0,0],"sum_hessian":[5.1781113E3,5.1697437E3,8.367844E0,5.1506167E3,1.9127138E1,3.2280002E0,5.1398435E0],"tree_param":{"num_deleted":"0","num_feature":"17","num_nodes":"7","size_leaf_vector":"0"}},{"base_weights":[2.143197E-5,-1.4356878E-3,3.4317154E-1,-9.3475435E-5,-3.7699807E-1,8.321043E-1,-1.3073169E-1],"categories":[],"categories_nodes":[],"categories_segments":[],"categories_sizes":[],"default_left":[1,1,1,0,0,0,0],"id":60,"left_children":[1,3,5,-1,-1,-1,-1],"loss_changes":[2.5898316E0,2.5998633E0,5.183382E0,0E0,0E0,0E0,0E0],"parents":[2147483647,0,0,1,1,2,2],"right_children":[2,4,6,-1,-1,-1,-1],"split_conditions":[1.3105062E-1,1.0007657E-1,-2.0925495E-1,-3.7390175E-5,-1.5079923E-1,3.3284172E-1,-5.2292675E-2],"split_indices":[8,8,5,0,0,0,0],"split_type":[0,0,0,0,0,0,0],"sum_hessian":[5.177566E3,5.156665E3,2.0900951E1,5.139298E3,1.736695E1,9.91532E0,1.0985632E1],"tree_param":{"num_deleted":"0","num_feature":"17","num_nodes":"7","size_leaf_vector":"0"}},{"base_weights":[-5.4944203E-6,-1.352501E-1,3.662226E-3,1.06249815E-2,-7.231393E-1,3.8777977E-1,-2.9308638E-3],"categories":[],"categories_nodes":[],"categories_segments":[],"categories_sizes":[],"default_left":[1,1,1,0,0,0,0],"id":61,"left_children":[1,3,5,-1,-1,-1,-1],"loss_changes":[2.5691605E0,1.1735229E1,1.2771626E1,0E0,0E0,0E0,0E0],"parents":[2147483647,0,0,1,1,2,2],"right_children":[2,4,6,-1,-1,-1,-1],"split_conditions":[-8.8889706E-1,9.949624E-1,-8.543256E-1,4.249993E-3,-2.892557E-1,1.5511191E-1,-1.1723455E-3],"split_indices":[12,6,12,0,0,0,0],"split_type":[0,0,0,0,0,0,0],"sum_hessian":[5.177349E3,1.35751E2,5.041598E3,1.0954991E2,2.6201092E1,8.409938E1,4.957499E3],"tree_param":{"num_deleted":"0","num_feature":"17","num_nodes":"7","size_leaf_vector":"0"}},{"base_weights":[-7.077591E-5,2.5665674E-3,-1.9414029E-1,-6.373745E-2,1.08478805E-2,-7.74706E-2,-7.6037616E-1],"categories":[],"categories_nodes":[],"categories_segments":[],"categories_sizes":[],"default_left":[1,1,1,0,0,0,0],"id":62,"left_children":[1,3,5,-1,-1,-1,-1],"loss_changes":[2.6515028E0,2.807076E0,4.5295925E0,0E0,0E0,0E0,0E0],"parents":[2147483647,0,0,1,1,2,2],"right_children":[2,4,6,-1,-1,-1,-1],"split_conditions":[2.312335E0,-6.816283E-1,-8.43223E-3,-2.5494982E-2,4.3391525E-3,-3.098824E-2,-3.0415046E-1],"split_indices":[11,12,8,0,0,0,0],"split_type":[0,0,0,0,0,0,0],"sum_hessian":[5.178484E3,5.110027E3,6.845688E1,5.666299E2,4.543397E3,5.7704094E1,1.0752784E1],"tree_param":{"num_deleted":"0","num_feature":"17","num_nodes":"7","size_leaf_vector":"0"}},{"base_weights":[-1.7178644E-4,2.0188822E-1,-3.0694348E-3,1.7412854E0,2.2830756E-2,-6.639994E-1,-2.0813225E-3],"categories":[],"categories_nodes":[],"categories_segments":[],"categories_sizes":[],"default_left":[1,1,1,0,0,0,0],"id":63,"left_children":[1,3,5,-1,-1,-1,-1],"loss_changes":[3.0330892E0,2.0147806E1,3.3338966E0,0E0,0E0,0E0,0E0],"parents":[2147483647,0,0,1,1,2,2],"right_children":[2,4,6,-1,-1,-1,-1],"split_conditions":[-4.626509E-1,-3.3322835E-1,-4.5789164E-1,6.965142E-1,9.132302E-3,-2.6559976E-1,-8.32529E-4],"split_indices":[15,14,15,0,0,0,0],"split_type":[0,0,0,0,0,0,0],"sum_hessian":[5.178292E3,7.2238716E1,5.106053E3,6.617954E0,6.5620766E1,6.620672E0,5.0994326E3],"tree_param":{"num_deleted":"0","num_feature":"17","num_nodes":"7","size_leaf_vector":"0"}},{"base_weights":[-4.0418073E-4,-1.0214048E-2,4.4331238E-2,3.423707E-3,-5.5852115E-1,-7.080844E-1,7.111759E-2],"categories":[],"categories_nodes":[],"categories_segments":[],"categories_sizes":[],"default_left":[1,1,1,0,0,0,0],"id":64,"left_children":[1,3,5,-1,-1,-1,-1],"loss_changes":[2.2755246E0,3.1801722E1,1.8845472E1,0E0,0E0,0E0,0E0],"parents":[2147483647,0,0,1,1,2,2],"right_children":[2,4,6,-1,-1,-1,-1],"split_conditions":[1.0187272E-2,6.4667184E-3,-4.572368E-1,1.3694828E-3,-2.2340846E-1,-2.8323376E-1,2.8447036E-2],"split_indices":[8,8,14,0,0,0,0],"split_type":[0,0,0,0,0,0,0],"sum_hessian":[5.183185E3,4.251632E3,9.315533E2,4.1494194E3,1.0221258E2,3.114932E1,9.0040393E2],"tree_param":{"num_deleted":"0","num_feature":"17","num_nodes":"7","size_leaf_vector":"0"}},{"base_weights":[-6.7495764E-4,-2.155955E-4,-9.406591E-1,-1.2323603E-3,7.596879E-1],"categories":[],"categories_nodes":[],"categories_segments":[],"categories_sizes":[],"default_left":[1,1,0,0,0],"id":65,"left_children":[1,3,-1,-1,-1],"loss_changes":[2.2361097E0,4.0013733E0,0E0,0E0,0E0],"parents":[2147483647,0,0,1,1],"right_children":[2,4,-1,-1,-1],"split_conditions":[5.5325237E1,2.9285082E1,-3.7626365E-1,-4.929441E-4,3.0387518E-1],"split_indices":[15,15,0,0,0],"split_type":[0,0,0,0,0],"sum_hessian":[5.1781294E3,5.1766E3,1.5295305E0,5.1706797E3,5.9200864E0],"tree_param":{"num_deleted":"0","num_feature":"17","num_nodes":"5","size_leaf_vector":"0"}},{"base_weights":[-3.903071E-4,6.630664E-4,-4.0977716E-1,-2.5813624E-3,2.7912894E-1,7.409254E-1,-1.5557958E0],"categories":[],"categories_nodes":[],"categories_segments":[],"categories_sizes":[],"default_left":[1,1,1,0,0,0,0],"id":66,"left_children":[1,3,5,-1,-1,-1,-1],"loss_changes":[2.23314E0,4.6675816E0,1.8678888E1,0E0,0E0,0E0,0E0],"parents":[2147483647,0,0,1,1,2,2],"right_children":[2,4,6,-1,-1,-1,-1],"split_conditions":[1.7255486E1,1.5313663E0,-2.4522173E-1,-1.032545E-3,1.1165158E-1,2.9637015E-1,-6.223183E-1],"split_indices":[15,15,11,0,0,0,0],"split_type":[0,0,0,0,0,0,0],"sum_hessian":[5.176818E3,5.164528E3,1.2290216E1,5.106028E3,5.850002E1,6.3089547E0,5.9812617E0],"tree_param":{"num_deleted":"0","num_feature":"17","num_nodes":"7","size_leaf_vector":"0"}},{"base_weights":[-1.6690338E-4,6.009997E-3,-6.822913E-2,-5.421785E-3,1.0258519E-1,-2.2237056E-1,8.85206E-2],"categories":[],"categories_nodes":[],"categories_segments":[],"categories_sizes":[],"default_left":[1,1,1,0,0,0,0],"id":67,"left_children":[1,3,5,-1,-1,-1,-1],"loss_changes":[2.1767943E0,5.2413335E0,1.0428573E1,0E0,0E0,0E0,0E0],"parents":[2147483647,0,0,1,1,2,2],"right_children":[2,4,6,-1,-1,-1,-1],"split_conditions":[2.3374788E-2,1.0187272E-2,1.1769606E-1,-2.168714E-3,4.1034076E-2,-8.894823E-2,3.540824E-2],"split_indices":[8,8,1,0,0,0,0],"split_type":[0,0,0,0,0,0,0],"sum_hessian":[5.1757695E3,4.745967E3,4.2980246E2,4.2444834E3,5.0148343E2,2.1649312E2,2.1330934E2],"tree_param":{"num_deleted":"0","num_feature":"17","num_nodes":"7","size_leaf_vector":"0"}},{"base_weights":[-1.8967915E-4,7.792977E-3,-5.2878976E-2,3.2270295E-3,8.1409514E-1,-2.7491403E-1,1.4871214E-2],"categories":[],"categories_nodes":[],"categories_segments":[],"categories_sizes":[],"default_left":[1,1,1,0,0,0,0],"id":68,"left_children":[1,3,5,-1,-1,-1,-1],"loss_changes":[2.177047E0,1.6546041E1,1.0248551E1,0E0,0E0,0E0,0E0],"parents":[2147483647,0,0,1,1,2,2],"right_children":[2,4,6,-1,-1,-1,-1],"split_conditions":[5.371547E-3,1.1913087E0,-4.8230028E-1,1.2908118E-3,3.2563806E-1,-1.09965615E-1,5.9484853E-3],"split_indices":[9,15,11,0,0,0,0],"split_type":[0,0,0,0,0,0,0],"sum_hessian":[5.1740645E3,4.494049E3,6.800157E2,4.469741E3,2.4307358E1,1.5826903E2,5.217467E2],"tree_param":{"num_deleted":"0","num_feature":"17","num_nodes":"7","size_leaf_vector":"0"}},{"base_weights":[-8.042832E-5,5.655759E-3,-7.169836E-2,2.3875025E-3,3.5378683E-1,-3.7476858E-1,3.3984255E-2],"categories":[],"categories_nodes":[],"categories_segments":[],"categories_sizes":[],"default_left":[1,1,1,0,0,0,0],"id":69,"left_children":[1,3,5,-1,-1,-1,-1],"loss_changes":[2.1264331E0,5.451773E0,1.2306738E1,0E0,0E0,0E0,0E0],"parents":[2147483647,0,0,1,1,2,2],"right_children":[2,4,6,-1,-1,-1,-1],"split_conditions":[1.132499E0,1.0288279E0,1.829641E0,9.55001E-4,1.4151473E-1,-1.4990744E-1,1.3593703E-2],"split_indices":[12,12,12,0,0,0,0],"split_type":[0,0,0,0,0,0,0],"sum_hessian":[5.17416E3,4.7913237E3,3.8283664E2,4.7477583E3,4.356513E1,9.83237E1,2.8451294E2],"tree_param":{"num_deleted":"0","num_feature":"17","num_nodes":"7","size_leaf_vector":"0"}},{"base_weights":[-8.9368135E-5,-2.898667E-1,1.2833839E-3,4.31283E-1,-5.1655823E-1,1.4492205E0,5.936829E-4],"categories":[],"categories_nodes":[],"categories_segments":[],"categories_sizes":[],"default_left":[1,1,1,0,0,0,0],"id":70,"left_children":[1,3,5,-1,-1,-1,-1],"loss_changes":[2.0590892E0,4.2126145E0,5.1441016E0,0E0,0E0,0E0,0E0],"parents":[2147483647,0,0,1,1,2,2],"right_children":[2,4,6,-1,-1,-1,-1],"split_conditions":[-9.904909E-1,-2.810008E-2,-9.903861E-1,1.725132E-1,-2.066233E-1,5.7968825E-1,2.3747317E-4],"split_indices":[12,8,12,0,0,0,0],"split_type":[0,0,0,0,0,0,0],"sum_hessian":[5.1743555E3,2.3405846E1,5.1509497E3,5.3820357E0,1.802381E1,1.4524683E0,5.149497E3],"tree_param":{"num_deleted":"0","num_feature":"17","num_nodes":"7","size_leaf_vector":"0"}},{"base_weights":[2.3620132E-5,1.0771335E-1,-4.1491664E-3,-1.2269244E0,1.5078332E-1,4.562673E-1,-5.875597E-3],"categories":[],"categories_nodes":[],"categories_segments":[],"categories_sizes":[],"default_left":[1,1,1,0,0,0,0],"id":71,"left_children":[1,3,5,-1,-1,-1,-1],"loss_changes":[2.3258657E0,1.1283486E1,3.9634023E0,0E0,0E0,0E0,0E0],"parents":[2147483647,0,0,1,1,2,2],"right_children":[2,4,6,-1,-1,-1,-1],"split_conditions":[-1.3881302E0,-3.5990152E0,-9.339247E-1,-4.9076977E-1,6.0313325E-2,1.8250692E-1,-2.3502389E-3],"split_indices":[13,11,12,0,0,0,0],"split_type":[0,0,0,0,0,0,0],"sum_hessian":[5.1738857E3,1.9207489E2,4.981811E3,5.145362E0,1.8692952E2,1.7627035E1,4.964184E3],"tree_param":{"num_deleted":"0","num_feature":"17","num_nodes":"7","size_leaf_vector":"0"}},{"base_weights":[-8.702375E-5,-2.1228185E-1,2.5044514E-3,7.2435783E-3,-6.4878035E-1,1.7555147E-1,-2.4683487E-3],"categories":[],"categories_nodes":[],"categories_segments":[],"categories_sizes":[],"default_left":[1,1,1,0,0,0,0],"id":72,"left_children":[1,3,5,-1,-1,-1,-1],"loss_changes":[2.8452382E0,5.986677E0,4.399221E0,0E0,0E0,0E0,0E0],"parents":[2147483647,0,0,1,1,2,2],"right_children":[2,4,6,-1,-1,-1,-1],"split_conditions":[-9.513539E-1,-2.9208833E-1,-1.3881302E0,2.8974314E-3,-2.5951216E-1,7.022059E-2,-9.873395E-4],"split_indices":[12,15,13,0,0,0,0],"split_type":[0,0,0,0,0,0,0],"sum_hessian":[5.1721562E3,6.1427673E1,5.1107285E3,4.1526447E1,1.9901228E1,1.4180472E2,4.968924E3],"tree_param":{"num_deleted":"0","num_feature":"17","num_nodes":"7","size_leaf_vector":"0"}},{"base_weights":[-1.3020539E-4,4.2840675E-3,-1.17851764E-1,1.8670855E-3,8.135645E-1,-3.8135937E-1,1.0013949E-1],"categories":[],"categories_nodes":[],"categories_segments":[],"categories_sizes":[],"default_left":[1,1,1,0,0,0,0],"id":73,"left_children":[1,3,5,-1,-1,-1,-1],"loss_changes":[2.6874592E0,9.748704E0,1.077499E1,0E0,0E0,0E0,0E0],"parents":[2147483647,0,0,1,1,2,2],"right_children":[2,4,6,-1,-1,-1,-1],"split_conditions":[7.205951E-1,6.71987E-1,-2.4942279E-1,7.468342E-4,3.254258E-1,-1.5254375E-1,4.0055797E-2],"split_indices":[15,15,6,0,0,0,0],"split_type":[0,0,0,0,0,0,0],"sum_hessian":[5.1696494E3,4.983735E3,1.8591437E2,4.969894E3,1.384069E1,8.3830605E1,1.0208377E2],"tree_param":{"num_deleted":"0","num_feature":"17","num_nodes":"7","size_leaf_vector":"0"}},{"base_weights":[-7.2266776E-5,-1.675709E-2,2.7462881E-2,-2.0686325E-3,-2.0535648E-1,2.5291596E-2,2.0482202E0],"categories":[],"categories_nodes":[],"categories_segments":[],"categories_sizes":[],"default_left":[1,1,1,0,0,0,0],"id":74,"left_children":[1,3,5,-1,-1,-1,-1],"loss_changes":[2.3745852E0,8.915447E0,8.505033E0,0E0,0E0,0E0,0E0],"parents":[2147483647,0,0,1,1,2,2],"right_children":[2,4,6,-1,-1,-1,-1],"split_conditions":[7.2874546E-1,4.7970128E-1,3.8200681E0,-8.2745304E-4,-8.214259E-2,1.0116639E-2,8.192881E-1],"split_indices":[13,13,7,0,0,0,0],"split_type":[0,0,0,0,0,0,0],"sum_hessian":[5.1666675E3,3.2174543E3,1.9492133E3,2.9859167E3,2.3153755E2,1.9481326E3,1.0807347E0],"tree_param":{"num_deleted":"0","num_feature":"17","num_nodes":"7","size_leaf_vector":"0"}},{"base_weights":[-4.8502434E-6,1.5145297E-3,-2.9559115E-1,9.4153546E-4,1.2075446E0,-1.5036005E0,1.3652632E-1],"categories":[],"categories_nodes":[],"categories_segments":[],"categories_sizes":[],"default_left":[1,1,1,0,0,0,0],"id":75,"left_children":[1,3,5,-1,-1,-1,-1],"loss_changes":[2.3206253E0,3.5513809E0,1.3999014E1,0E0,0E0,0E0,0E0],"parents":[2147483647,0,0,1,1,2,2],"right_children":[2,4,6,-1,-1,-1,-1],"split_conditions":[4.5631685E0,6.7968473E0,9.949624E-1,3.766142E-4,4.8301783E-1,-6.014402E-1,5.4610528E-2],"split_indices":[15,7,6,0,0,0,0],"split_type":[0,0,0,0,0,0,0],"sum_hessian":[5.165192E3,5.1397676E3,2.542468E1,5.138327E3,1.440478E0,6.0452437E0,1.9379436E1],"tree_param":{"num_deleted":"0","num_feature":"17","num_nodes":"7","size_leaf_vector":"0"}},{"base_weights":[-4.455229E-5,-2.2525206E-2,1.8058399E-2,-6.628214E-3,-3.1413358E-1,5.9041264E-3,2.9069594E-1],"categories":[],"categories_nodes":[],"categories_segments":[],"categories_sizes":[],"default_left":[1,1,1,0,0,0,0],"id":76,"left_children":[1,3,5,-1,-1,-1,-1],"loss_changes":[2.1027424E0,1.0682099E1,9.482488E0,0E0,0E0,0E0,0E0],"parents":[2147483647,0,0,1,1,2,2],"right_children":[2,4,6,-1,-1,-1,-1],"split_conditions":[3.5517913E-1,1.8248785E0,4.1609142E-2,-2.6512856E-3,-1.2565343E-1,2.3616506E-3,1.1627837E-1],"split_indices":[13,11,8,0,0,0,0],"split_type":[0,0,0,0,0,0,0],"sum_hessian":[5.164873E3,2.3037632E3,2.8611096E3,2.1856362E3,1.1812695E2,2.739982E3,1.2112765E2],"tree_param":{"num_deleted":"0","num_feature":"17","num_nodes":"7","size_leaf_vector":"0"}},{"base_weights":[-1.4367302E-4,9.595333E-3,-6.51701E-2,7.2949124E-3,1.1009954E0,2.5178874E-2,-2.6823232E-1],"categories":[],"categories_nodes":[],"categories_segments":[],"categories_sizes":[],"default_left":[1,1,1,0,0,0,0],"id":77,"left_children":[1,3,5,-1,-1,-1,-1],"loss_changes":[3.2704122E0,1.1268601E1,1.2348141E1,0E0,0E0,0E0,0E0],"parents":[2147483647,0,0,1,1,2,2],"right_children":[2,4,6,-1,-1,-1,-1],"split_conditions":[7.631602E-1,7.4100536E-1,1.0230067E-1,2.917965E-3,4.403982E-1,1.007155E-2,-1.0729293E-1],"split_indices":[12,12,11,0,0,0,0],"split_type":[0,0,0,0,0,0,0],"sum_hessian":[5.1621523E3,4.490468E3,6.7168475E2,4.4820273E3,8.440397E0,4.654617E2,2.0622302E2],"tree_param":{"num_deleted":"0","num_feature":"17","num_nodes":"7","size_leaf_vector":"0"}},{"base_weights":[-4.891746E-5,-2.6674563E-2,2.0414775E-2,-1.7253453E-2,-7.3128426E-1,3.166862E-1,6.174002E-3],"categories":[],"categories_nodes":[],"categories_segments":[],"categories_sizes":[],"default_left":[1,1,1,0,0,0,0],"id":78,"left_children":[1,3,5,-1,-1,-1,-1],"loss_changes":[2.8139172E0,1.4885763E1,1.23185425E1,0E0,0E0,0E0,0E0],"parents":[2147483647,0,0,1,1,2,2],"right_children":[2,4,6,-1,-1,-1,-1],"split_conditions":[1.9308439E-1,1.514511E-1,2.9254174E-1,-6.901381E-3,-2.925137E-1,1.2667449E-1,2.4696009E-3],"split_indices":[11,11,11,0,0,0,0],"split_type":[0,0,0,0,0,0,0],"sum_hessian":[5.162487E3,2.2433386E3,2.9191482E3,2.2147505E3,2.8588232E1,1.3290454E2,2.7862437E3],"tree_param":{"num_deleted":"0","num_feature":"17","num_nodes":"7","size_leaf_vector":"0"}},{"base_weights":[-2.2505334E-4,1.2560214E-2,-3.59109E-2,1.5008689E-2,-6.58367E-1,-5.781394E-1,-2.0764673E-2],"categories":[],"categories_nodes":[],"categories_segments":[],"categories_sizes":[],"default_left":[1,1,1,0,0,0,0],"id":79,"left_children":[1,3,5,-1,-1,-1,-1],"loss_changes":[2.3576074E0,6.2594647E0,1.1181826E1,0E0,0E0,0E0,0E0],"parents":[2147483647,0,0,1,1,2,2],"right_children":[2,4,6,-1,-1,-1,-1],"split_conditions":[-5.599091E-4,9.334943E-1,-4.572368E-1,6.0034757E-3,-2.633468E-1,-2.3125577E-1,-8.305869E-3],"split_indices":[8,7,14,0,0,0,0],"split_type":[0,0,0,0,0,0,0],"sum_hessian":[5.165335E3,3.8033472E3,1.3619877E3,3.790492E3,1.2855349E1,3.600088E1,1.3259868E3],"tree_param":{"num_deleted":"0","num_feature":"17","num_nodes":"7","size_leaf_vector":"0"}},{"base_weights":[-3.9016732E-4,7.392988E-2,-6.6407174E-3,1.9040847E0,5.2576354E-3,-2.2155647E-1,-2.128645E-3],"categories":[],"categories_nodes":[],"categories_segments":[],"categories_sizes":[],"default_left":[1,1,1,0,0,0,0],"id":80,"left_children":[1,3,5,-1,-1,-1,-1],"loss_changes":[2.3981376E0,5.032394E1,4.61715E0,0E0,0E0,0E0,0E0],"parents":[2147483647,0,0,1,1,2,2],"right_children":[2,4,6,-1,-1,-1,-1],"split_conditions":[-3.3322835E-1,-3.5990152E0,-3.5990152E0,7.616339E-1,2.1030542E-3,-8.862259E-2,-8.5145805E-4],"split_indices":[14,11,11,0,0,0,0],"split_type":[0,0,0,0,0,0,0],"sum_hessian":[5.1603213E3,3.9949023E2,4.760831E3,1.3481207E1,3.8600903E2,9.6907364E1,4.663924E3],"tree_param":{"num_deleted":"0","num_feature":"17","num_nodes":"7","size_leaf_vector":"0"}},{"base_weights":[-8.575853E-4,2.8641079E-2,-1.4222572E-2,5.596456E-2,-3.662285E-1,-6.508633E-2,2.8742254E-2],"categories":[],"categories_nodes":[],"categories_segments":[],"categories_sizes":[],"default_left":[1,1,1,0,0,0,0],"id":81,"left_children":[1,3,5,-1,-1,-1,-1],"loss_changes":[2.0404224E0,1.743138E1,7.785437E0,0E0,0E0,0E0,0E0],"parents":[2147483647,0,0,1,1,2,2],"right_children":[2,4,6,-1,-1,-1,-1],"split_conditions":[2.5144592E-1,5.41185E-1,4.1339397E-1,2.2385824E-2,-1.464914E-1,-2.6034532E-2,1.14969015E-2],"split_indices":[5,11,11,0,0,0,0],"split_type":[0,0,0,0,0,0,0],"sum_hessian":[5.17343E3,1.6127312E3,3.560699E3,1.5091613E3,1.0356997E2,1.6302355E3,1.9304635E3],"tree_param":{"num_deleted":"0","num_feature":"17","num_nodes":"7","size_leaf_vector":"0"}},{"base_weights":[-6.361129E-4,1.9597005E-2,-1.7254522E-2,8.0713764E-2,-3.8765933E-2,-5.7355553E-2,8.1169836E-2],"categories":[],"categories_nodes":[],"categories_segments":[],"categories_sizes":[],"default_left":[1,1,1,0,0,0,0],"id":82,"left_children":[1,3,5,-1,-1,-1,-1],"loss_changes":[1.7379073E0,8.3171E0,1.1205138E1,0E0,0E0,0E0,0E0],"parents":[2147483647,0,0,1,1,2,2],"right_children":[2,4,6,-1,-1,-1,-1],"split_conditions":[-3.1169388E-1,2.6102815E0,2.6102815E0,3.2285508E-2,-1.5506374E-2,-2.294222E-2,3.2467935E-2],"split_indices":[16,14,14,0,0,0,0],"split_type":[0,0,0,0,0,0,0],"sum_hessian":[5.166612E3,2.3298325E3,2.8367793E3,1.1378798E3,1.1919529E3,2.0158705E3,8.2090875E2],"tree_param":{"num_deleted":"0","num_feature":"17","num_nodes":"7","size_leaf_vector":"0"}},{"base_weights":[-4.618545E-4,-3.7630435E-2,1.0785122E-2,9.519237E-3,-4.3174165E-1,5.9294087E-1,3.1438034E-3],"categories":[],"categories_nodes":[],"categories_segments":[],"categories_sizes":[],"default_left":[1,1,1,0,0,0,0],"id":83,"left_children":[1,3,5,-1,-1,-1,-1],"loss_changes":[2.1590407E0,2.2298538E1,1.7636208E1,0E0,0E0,0E0,0E0],"parents":[2147483647,0,0,1,1,2,2],"right_children":[2,4,6,-1,-1,-1,-1],"split_conditions":[-1.671593E-1,-2.5216064E-1,-1.353561E-1,3.807695E-3,-1.7269666E-1,2.3717634E-1,1.2575214E-3],"split_indices":[11,11,11,0,0,0,0],"split_type":[0,0,0,0,0,0,0],"sum_hessian":[5.162776E3,1.1987725E3,3.9640032E3,1.0715527E3,1.2721983E2,5.0364635E1,3.9136387E3],"tree_param":{"num_deleted":"0","num_feature":"17","num_nodes":"7","size_leaf_vector":"0"}},{"base_weights":[-5.640152E-4,3.1209817E-2,-1.257232E-2,-1.0604424E-1,1.08358085E-1,-3.644279E-2,6.8213835E-2],"categories":[],"categories_nodes":[],"categories_segments":[],"categories_sizes":[],"default_left":[1,1,1,0,0,0,0],"id":84,"left_children":[1,3,5,-1,-1,-1,-1],"loss_changes":[1.9716715E0,1.5019425E1,7.234344E0,0E0,0E0,0E0,0E0],"parents":[2147483647,0,0,1,1,2,2],"right_children":[2,4,6,-1,-1,-1,-1],"split_conditions":[-2.738696E-1,1.3215989E-2,5.9380496E-1,-4.2417698E-2,4.3343235E-2,-1.4577116E-2,2.7285535E-2],"split_indices":[1,10,11,0,0,0,0],"split_type":[0,0,0,0,0,0,0],"sum_hessian":[5.1655044E3,1.4163253E3,3.749179E3,5.0950082E2,9.068246E2,2.894476E3,8.5470294E2],"tree_param":{"num_deleted":"0","num_feature":"17","num_nodes":"7","size_leaf_vector":"0"}},{"base_weights":[-4.2713204E-4,9.342049E-3,-3.8978066E-2,-2.9863724E-3,3.8582084E-1,3.051978E-1,-7.701382E-2],"categories":[],"categories_nodes":[],"categories_segments":[],"categories_sizes":[],"default_left":[1,1,1,0,0,0,0],"id":85,"left_children":[1,3,5,-1,-1,-1,-1],"loss_changes":[1.9484273E0,1.9159138E1,1.3716324E1,0E0,0E0,0E0,0E0],"parents":[2147483647,0,0,1,1,2,2],"right_children":[2,4,6,-1,-1,-1,-1],"split_conditions":[6.932622E-1,5.9380496E-1,-8.005565E-2,-1.194549E-3,1.5432833E-1,1.2207913E-1,-3.0805528E-2],"split_indices":[11,11,14,0,0,0,0],"split_type":[0,0,0,0,0,0,0],"sum_hessian":[5.1716133E3,4.12664E3,1.044973E3,3.996752E3,1.2988818E2,1.0329139E2,9.416816E2],"tree_param":{"num_deleted":"0","num_feature":"17","num_nodes":"7","size_leaf_vector":"0"}},{"base_weights":[-4.5330133E-4,-2.18801E-2,2.1683939E-2,-1.0386262E-1,3.60215E-2,9.1961026E-2,-3.5062406E-2],"categories":[],"categories_nodes":[],"categories_segments":[],"categories_sizes":[],"default_left":[1,1,1,0,0,0,0],"id":86,"left_children":[1,3,5,-1,-1,-1,-1],"loss_changes":[2.4584143E0,1.2505749E1,1.0169382E1,0E0,0E0,0E0,0E0],"parents":[2147483647,0,0,1,1,2,2],"right_children":[2,4,6,-1,-1,-1,-1],"split_conditions":[7.385644E-1,-2.3940068E-1,-4.068488E-1,-4.154505E-2,1.44086005E-2,3.678441E-2,-1.4024963E-2],"split_indices":[14,12,12,0,0,0,0],"split_type":[0,0,0,0,0,0,0],"sum_hessian":[5.1809175E3,2.63271E3,2.5482078E3,1.0894171E3,1.5432928E3,1.138107E3,1.4101007E3],"tree_param":{"num_deleted":"0","num_feature":"17","num_nodes":"7","size_leaf_vector":"0"}},{"base_weights":[-3.7314845E-4,-1.1540034E-2,3.2728188E-2,-7.1378537E-3,-7.4307185E-1,-4.192334E-3,3.3263013E-1],"categories":[],"categories_nodes":[],"categories_segments":[],"categories_sizes":[],"default_left":[1,1,1,0,0,0,0],"id":87,"left_children":[1,3,5,-1,-1,-1,-1],"loss_changes":[1.9099293E0,1.2436731E1,1.4433436E1,0E0,0E0,0E0,0E0],"parents":[2147483647,0,0,1,1,2,2],"right_children":[2,4,6,-1,-1,-1,-1],"split_conditions":[-3.1001635E-3,-3.6063995E-3,-2.2012375E-1,-2.8551414E-3,-2.9722875E-1,-1.6769337E-3,1.3305205E-1],"split_indices":[9,9,16,0,0,0,0],"split_type":[0,0,0,0,0,0,0],"sum_hessian":[5.164993E3,3.8625842E3,1.3024089E3,3.840483E3,2.2101334E1,1.1605244E3,1.4188455E2],"tree_param":{"num_deleted":"0","num_feature":"17","num_nodes":"7","size_leaf_vector":"0"}},{"base_weights":[-2.8404148E-4,1.9941442E-2,-1.9844128E-2,1.595116E-2,1.613047E0,-6.1657584E-1,-1.3942984E-2],"categories":[],"categories_nodes":[],"categories_segments":[],"categories_sizes":[],"default_left":[1,1,1,0,0,0,0],"id":88,"left_children":[1,3,5,-1,-1,-1,-1],"loss_changes":[2.0432684E0,1.6116007E1,9.237176E0,0E0,0E0,0E0,0E0],"parents":[2147483647,0,0,1,1,2,2],"right_children":[2,4,6,-1,-1,-1,-1],"split_conditions":[-2.809822E-1,-2.8163177E-1,-2.7677506E-1,6.3804644E-3,6.452188E-1,-2.4663034E-1,-5.5771936E-3],"split_indices":[16,16,16,0,0,0,0],"split_type":[0,0,0,0,0,0,0],"sum_hessian":[5.1628257E3,2.5382302E3,2.6245955E3,2.532896E3,5.3341804E0,2.4687405E1,2.5999082E3],"tree_param":{"num_deleted":"0","num_feature":"17","num_nodes":"7","size_leaf_vector":"0"}},{"base_weights":[-1.6335017E-4,7.120286E-4,-3.7120247E-1,1.8290181E-3,-3.419312E-1,6.216793E-1,-1.08062E0],"categories":[],"categories_nodes":[],"categories_segments":[],"categories_sizes":[],"default_left":[1,1,1,0,0,0,0],"id":89,"left_children":[1,3,5,-1,-1,-1,-1],"loss_changes":[1.6764437E0,1.97149E0,9.22888E0,0E0,0E0,0E0,0E0],"parents":[2147483647,0,0,1,1,2,2],"right_children":[2,4,6,-1,-1,-1,-1],"split_conditions":[1.7255486E1,7.1623936E0,-2.4522173E-1,7.3160726E-4,-1.3677248E-1,2.4867173E-1,-4.3224803E-1],"split_indices":[15,12,11,0,0,0,0],"split_type":[0,0,0,0,0,0,0],"sum_hessian":[5.159655E3,5.1485063E3,1.1148597E1,5.1327686E3,1.5737753E1,4.6976166E0,6.4509807E0],"tree_param":{"num_deleted":"0","num_feature":"17","num_nodes":"7","size_leaf_vector":"0"}},{"base_weights":[-1.1822231E-4,-1.9537376E-1,1.5059292E-3,5.1358056E-1,-6.3526106E-1,6.191825E-1,-5.5031385E-4],"categories":[],"categories_nodes":[],"categories_segments":[],"categories_sizes":[],"default_left":[1,1,1,0,0,0,0],"id":90,"left_children":[1,3,5,-1,-1,-1,-1],"loss_changes":[1.6370792E0,1.3607085E1,6.5028954E0,0E0,0E0,0E0,0E0],"parents":[2147483647,0,0,1,1,2,2],"right_children":[2,4,6,-1,-1,-1,-1],"split_conditions":[-4.7678256E-1,-8.9225423E-1,-4.7316945E-1,2.0543222E-1,-2.5410444E-1,2.4767302E-1,-2.2012554E-4],"split_indices":[15,12,15,0,0,0,0],"split_type":[0,0,0,0,0,0,0],"sum_hessian":[5.1603315E3,4.1585857E1,5.118746E3,1.585893E1,2.5726929E1,1.5987951E1,5.102758E3],"tree_param":{"num_deleted":"0","num_feature":"17","num_nodes":"7","size_leaf_vector":"0"}},{"base_weights":[-7.8560784E-5,5.719829E-4,-4.7760144E-1,-8.7769283E-4,4.9281362E-1,1.9823785E-1,-8.6986524E-1],"categories":[],"categories_nodes":[],"categories_segments":[],"categories_sizes":[],"default_left":[1,1,1,0,0,0,0],"id":91,"left_children":[1,3,5,-1,-1,-1,-1],"loss_changes":[1.6035793E0,3.679078E0,2.0342379E0,0E0,0E0,0E0,0E0],"parents":[2147483647,0,0,1,1,2,2],"right_children":[2,4,6,-1,-1,-1,-1],"split_conditions":[3.392488E0,3.07966E0,-2.6197267E-1,-3.5107715E-4,1.9712545E-1,7.929514E-2,-3.479461E-1],"split_indices":[11,11,16,0,0,0,0],"split_type":[0,0,0,0,0,0,0],"sum_hessian":[5.160142E3,5.1541196E3,6.022809E0,5.13998E3,1.41392765E1,2.3935478E0,3.629261E0],"tree_param":{"num_deleted":"0","num_feature":"17","num_nodes":"7","size_leaf_vector":"0"}},{"base_weights":[-1.0340776E-4,-4.9981333E-2,6.2511964E-3,4.0194705E-1,-8.626834E-2,1.3878706E-1,-4.863734E-3],"categories":[],"categories_nodes":[],"categories_segments":[],"categories_sizes":[],"default_left":[1,1,1,0,0,0,0],"id":92,"left_children":[1,3,5,-1,-1,-1,-1],"loss_changes":[1.6359388E0,9.599823E0,6.7449064E0,0E0,0E0,0E0,0E0],"parents":[2147483647,0,0,1,1,2,2],"right_children":[2,4,6,-1,-1,-1,-1],"split_conditions":[-6.816283E-1,-5.961168E-1,-5.8186305E-1,1.6077882E-1,-3.4507338E-2,5.5514824E-2,-1.9454936E-3],"split_indices":[12,16,12,0,0,0,0],"split_type":[0,0,0,0,0,0,0],"sum_hessian":[5.159446E3,5.8227167E2,4.577174E3,4.2528843E1,5.397428E2,3.5326846E2,4.223906E3],"tree_param":{"num_deleted":"0","num_feature":"17","num_nodes":"7","size_leaf_vector":"0"}},{"base_weights":[-5.163499E-5,-3.0989205E-2,1.0673056E-2,3.5776395E-2,-1.9827273E-1,2.1535912E0,9.4707655E-3],"categories":[],"categories_nodes":[],"categories_segments":[],"categories_sizes":[],"default_left":[1,1,1,0,0,0,0],"id":93,"left_children":[1,3,5,-1,-1,-1,-1],"loss_changes":[1.7118334E0,1.4840409E1,9.850334E0,0E0,0E0,0E0,0E0],"parents":[2147483647,0,0,1,1,2,2],"right_children":[2,4,6,-1,-1,-1,-1],"split_conditions":[-4.7586286E-1,9.516225E-1,-4.7544193E-1,1.4310558E-2,-7.93091E-2,8.614365E-1,3.7883061E-3],"split_indices":[12,5,12,0,0,0,0],"split_type":[0,0,0,0,0,0,0],"sum_hessian":[5.1572993E3,1.3271046E3,3.8301948E3,9.490924E2,3.7801218E2,1.1438807E0,3.829051E3],"tree_param":{"num_deleted":"0","num_feature":"17","num_nodes":"7","size_leaf_vector":"0"}},{"base_weights":[1.2330628E-5,7.588063E-2,-4.817092E-3,5.7920102E-2,2.1065097E0,-3.217088E-1,8.3142985E-4],"categories":[],"categories_nodes":[],"categories_segments":[],"categories_sizes":[],"default_left":[1,1,1,0,0,0,0],"id":94,"left_children":[1,3,5,-1,-1,-1,-1],"loss_changes":[1.889938E0,1.1136366E1,8.680613E0,0E0,0E0,0E0,0E0],"parents":[2147483647,0,0,1,1,2,2],"right_children":[2,4,6,-1,-1,-1,-1],"split_conditions":[-4.0310895E-1,-4.0339404E-1,-3.872637E-1,2.316804E-2,8.4260386E-1,-1.2868352E-1,3.3257194E-4],"split_indices":[15,15,15,0,0,0,0],"split_type":[0,0,0,0,0,0,0],"sum_hessian":[5.15613E3,3.076924E2,4.8484375E3,3.0601428E2,1.6781152E0,8.392889E1,4.7645083E3],"tree_param":{"num_deleted":"0","num_feature":"17","num_nodes":"7","size_leaf_vector":"0"}},{"base_weights":[9.7612E-5,3.5966143E-2,-1.0692194E-2,-4.078278E-3,2.1234514E-1,-7.939784E-1,-5.5269436E-3],"categories":[],"categories_nodes":[],"categories_segments":[],"categories_sizes":[],"default_left":[1,1,1,0,0,0,0],"id":95,"left_children":[1,3,5,-1,-1,-1,-1],"loss_changes":[1.9967521E0,8.427808E0,1.6042614E1,0E0,0E0,0E0,0E0],"parents":[2147483647,0,0,1,1,2,2],"right_children":[2,4,6,-1,-1,-1,-1],"split_conditions":[-3.0543166E-1,-3.26851E-1,-3.0343303E-1,-1.6313111E-3,8.493806E-2,-3.1759137E-1,-2.2107775E-3],"split_indices":[15,15,15,0,0,0,0],"split_type":[0,0,0,0,0,0,0],"sum_hessian":[5.1573794E3,1.1921117E3,3.9652678E3,9.723336E2,2.1977808E2,2.497654E1,3.9402913E3],"tree_param":{"num_deleted":"0","num_feature":"17","num_nodes":"7","size_leaf_vector":"0"}},{"base_weights":[-4.6005734E-5,1.1149252E-2,-2.8961958E-2,5.566952E-3,5.193845E-1,-4.752689E-3,-5.105692E-1],"categories":[],"categories_nodes":[],"categories_segments":[],"categories_sizes":[],"default_left":[1,1,1,0,0,0,0],"id":96,"left_children":[1,3,5,-1,-1,-1,-1],"loss_changes":[1.6698939E0,1.0547469E1,1.6784071E1,0E0,0E0,0E0,0E0],"parents":[2147483647,0,0,1,1,2,2],"right_children":[2,4,6,-1,-1,-1,-1],"split_conditions":[4.8012042E-1,3.9226177E-1,9.516225E-1,2.2267809E-3,2.077538E-1,-1.9010756E-3,-2.0422769E-1],"split_indices":[3,7,5,0,0,0,0],"split_type":[0,0,0,0,0,0,0],"sum_hessian":[5.156429E3,3.7176846E3,1.4387445E3,3.6782942E3,3.9390305E1,1.3708452E3,6.7899315E1],"tree_param":{"num_deleted":"0","num_feature":"17","num_nodes":"7","size_leaf_vector":"0"}},{"base_weights":[-1.3042355E-5,-6.1884783E-2,5.835795E-3,-2.6425153E-1,2.3588223E-2,3.23594E-3,4.3587592E-1],"categories":[],"categories_nodes":[],"categories_segments":[],"categories_sizes":[],"default_left":[1,1,1,0,0,0,0],"id":97,"left_children":[1,3,5,-1,-1,-1,-1],"loss_changes":[1.8670727E0,7.7137823E0,5.2688165E0,0E0,0E0,0E0,0E0],"parents":[2147483647,0,0,1,1,2,2],"right_children":[2,4,6,-1,-1,-1,-1],"split_conditions":[-1.0246179E0,2.6102815E0,1.05420046E-1,-1.0570061E-1,9.43529E-3,1.294376E-3,1.7435037E-1],"split_indices":[5,14,9,0,0,0,0],"split_type":[0,0,0,0,0,0,0],"sum_hessian":[5.1574043E3,4.4460312E2,4.712801E3,1.3140224E2,3.132009E2,4.685482E3,2.7319069E1],"tree_param":{"num_deleted":"0","num_feature":"17","num_nodes":"7","size_leaf_vector":"0"}},{"base_weights":[-9.246769E-5,5.5608097E-3,-5.934525E-2,-2.5873715E-3,1.9110656E-1,3.1613484E-1,-1.3142255E-1],"categories":[],"categories_nodes":[],"categories_segments":[],"categories_sizes":[],"default_left":[1,1,1,0,0,0,0],"id":98,"left_children":[1,3,5,-1,-1,-1,-1],"loss_changes":[1.7259853E0,7.11205E0,1.2187408E1,0E0,0E0,0E0,0E0],"parents":[2147483647,0,0,1,1,2,2],"right_children":[2,4,6,-1,-1,-1,-1],"split_conditions":[3.1440064E-2,1.9739397E-2,-7.846025E-3,-1.0349486E-3,7.644262E-2,1.2645394E-1,-5.256902E-2],"split_indices":[7,9,9,0,0,0,0],"split_type":[0,0,0,0,0,0,0],"sum_hessian":[5.150634E3,4.7028438E3,4.477898E2,4.5059526E3,1.968914E2,7.156942E1,3.762204E2],"tree_param":{"num_deleted":"0","num_feature":"17","num_nodes":"7","size_leaf_vector":"0"}},{"base_weights":[-2.7127797E-5,7.8801075E-3,-4.5829415E-2,-2.6156788E-3,2.7859715E-1,-3.1002266E-2,-8.342388E-1],"categories":[],"categories_nodes":[],"categories_segments":[],"categories_sizes":[],"default_left":[1,1,1,0,0,0,0],"id":99,"left_children":[1,3,5,-1,-1,-1,-1],"loss_changes":[1.8657876E0,1.2483676E1,8.840248E0,0E0,0E0,0E0,0E0],"parents":[2147483647,0,0,1,1,2,2],"right_children":[2,4,6,-1,-1,-1,-1],"split_conditions":[1.078105E-2,1.061547E-2,1.7537549E0,-1.0462715E-3,1.1143886E-1,-1.24009065E-2,-3.3369553E-1],"split_indices":[8,8,11,0,0,0,0],"split_type":[0,0,0,0,0,0,0],"sum_hessian":[5.149701E3,4.392257E3,7.574444E2,4.229277E3,1.6298007E2,7.4448267E2,1.29617195E1],"tree_param":{"num_deleted":"0","num_feature":"17","num_nodes":"7","size_leaf_vector":"0"}}]},"name":"gbtree"},"learner_model_param":{"base_score":"5E-1","boost_from_average":"1","num_class":"0","num_feature":"17","num_target":"1"},"objective":{"name":"binary:logistic","reg_loss_param":{"scale_pos_weight":"2"}}},"version":[1,7,5]}